[{"inputs": [{"name": "input.1", "elem_type": -1, "shape": [1, 3, 32, 32]}], "outputs": [{"name": "22", "elem_type": -1, "shape": [1, 10]}], "architecture": [{"id": 0, "name": "/conv1/Conv", "op_type": "Conv", "inputs": ["input.1", "conv1.weight", "conv1.bias"], "outputs": ["/conv1/Conv_output_0"], "shape": {"/conv1/Conv_output_0": [1, 6, 28, 28]}, "tensor": null, "params": {"dilations": [1, 1], "group": 1, "kernel_shape": [5, 5], "pads": [0, 0, 0, 0], "strides": [1, 1]}, "opset_version_number": 17}, {"id": 1, "name": "/Relu", "op_type": "Relu", "inputs": ["/conv1/Conv_output_0"], "outputs": ["/Relu_output_0"], "shape": {"/Relu_output_0": [1, 6, 28, 28]}, "tensor": null, "params": {}, "opset_version_number": 17}, {"id": 2, "name": "/pool/MaxPool", "op_type": "MaxPool", "inputs": ["/Relu_output_0"], "outputs": ["/pool/MaxPool_output_0"], "shape": {"/pool/MaxPool_output_0": [1, 6, 14, 14]}, "tensor": null, "params": {"ceil_mode": 0, "dilations": [1, 1], "kernel_shape": [2, 2], "pads": [0, 0, 0, 0], "strides": [2, 2]}, "opset_version_number": 17}, {"id": 3, "name": "/conv2/Conv", "op_type": "Conv", "inputs": ["/pool/MaxPool_output_0", "conv2.weight", "conv2.bias"], "outputs": ["/conv2/Conv_output_0"], "shape": {"/conv2/Conv_output_0": [1, 16, 10, 10]}, "tensor": null, "params": {"dilations": [1, 1], "group": 1, "kernel_shape": [5, 5], "pads": [0, 0, 0, 0], "strides": [1, 1]}, "opset_version_number": 17}, {"id": 4, "name": "/Relu_1", "op_type": "Relu", "inputs": ["/conv2/Conv_output_0"], "outputs": ["/Relu_1_output_0"], "shape": {"/Relu_1_output_0": [1, 16, 10, 10]}, "tensor": null, "params": {}, "opset_version_number": 17}, {"id": 5, "name": "/pool_1/MaxPool", "op_type": "MaxPool", "inputs": ["/Relu_1_output_0"], "outputs": ["/pool_1/MaxPool_output_0"], "shape": {"/pool_1/MaxPool_output_0": [1, 16, 5, 5]}, "tensor": null, "params": {"ceil_mode": 0, "dilations": [1, 1], "kernel_shape": [2, 2], "pads": [0, 0, 0, 0], "strides": [2, 2]}, "opset_version_number": 17}, {"id": 6, "name": "/Flatten", "op_type": "Flatten", "inputs": ["/pool_1/MaxPool_output_0"], "outputs": ["/Flatten_output_0"], "shape": {"/Flatten_output_0": [1, 400]}, "tensor": null, "params": {"axis": 1}, "opset_version_number": 17}, {"id": 7, "name": "/fc1/Gemm", "op_type": "Gemm", "inputs": ["/Flatten_output_0", "fc1.weight", "fc1.bias"], "outputs": ["/fc1/Gemm_output_0"], "shape": {"/fc1/Gemm_output_0": [1, 120]}, "tensor": null, "params": {"alpha": 1.0, "beta": 1.0, "transB": 1}, "opset_version_number": 17}, {"id": 8, "name": "/Relu_2", "op_type": "Relu", "inputs": ["/fc1/Gemm_output_0"], "outputs": ["/Relu_2_output_0"], "shape": {"/Relu_2_output_0": [1, 120]}, "tensor": null, "params": {}, "opset_version_number": 17}, {"id": 9, "name": "/fc2/Gemm", "op_type": "Gemm", "inputs": ["/Relu_2_output_0", "fc2.weight", "fc2.bias"], "outputs": ["/fc2/Gemm_output_0"], "shape": {"/fc2/Gemm_output_0": [1, 84]}, "tensor": null, "params": {"alpha": 1.0, "beta": 1.0, "transB": 1}, "opset_version_number": 17}, {"id": 10, "name": "/Relu_3", "op_type": "Relu", "inputs": ["/fc2/Gemm_output_0"], "outputs": ["/Relu_3_output_0"], "shape": {"/Relu_3_output_0": [1, 84]}, "tensor": null, "params": {}, "opset_version_number": 17}, {"id": 11, "name": "/fc3/Gemm", "op_type": "Gemm", "inputs": ["/Relu_3_output_0", "fc3.weight", "fc3.bias"], "outputs": ["22"], "shape": {"22": [1, 10]}, "tensor": null, "params": {"alpha": 1.0, "beta": 1.0, "transB": 1}, "opset_version_number": 17}]}, {"w_and_b": [{"id": 0, "name": "conv1.weight", "op_type": "Const", "inputs": [], "outputs": [], "shape": {}, "tensor": [[[[-31932, -63084, -33806, -12172, -6057], [-58119, -43951, 25032, -309, -98547], [-54896, -23382, 37590, -6526, -81112], [76175, 8121, -21018, -665, -46669], [36121, 47920, -31783, -50852, 23812]], [[55286, 28733, 43454, 18120, 34164], [-4649, 57113, 86163, 62940, -21272], [29779, 66781, 68228, 66387, -42662], [118777, 68244, 27193, 19957, -18973], [62702, 111168, 41508, -18651, 34247]], [[-16188, -25891, -9893, -42394, -15906], [-32040, -39761, 49949, 22619, -89697], [-20958, -30182, 31141, 10440, -98889], [66319, 19927, -55173, -3499, -56740], [-4567, 23532, -50253, -67016, -28058]]], [[[-15191, -30325, -25447, -28095, -23224], [1894, 31349, 24770, -3528, -2302], [-31294, 19711, 49381, 27970, 1940], [-14115, 14064, 40592, 32204, 27333], [-16098, 26329, 32459, 57741, 8621]], [[-45419, -6526, -19895, -27206, -51176], [-47268, -4890, -19175, -7773, -19723], [-36347, -12870, 13540, -991, -19868], [-28989, -44365, -14991, 19270, -127], [-44348, -24184, -17347, -22157, 7983]], [[32059, 16921, 21686, 16244, 33523], [15189, 12096, 44731, 63953, 31134], [-37499, 4505, 34212, 92145, 72668], [-21798, 17465, 55824, 61055, 21267], [-16060, 16804, 34817, 34526, 36684]]], [[[84220, 36290, -1263, -47109, -30452], [26242, -3532, -68658, -57025, -38106], [-30277, -53472, -50208, -40443, 20357], [-11390, -13706, 7658, 15224, 23941], [6370, 33033, 13995, 32301, 57464]], [[6354, -14708, -38167, -68754, -36286], [297, -44747, -72641, -37993, -20812], [-30767, -61962, -54386, -30016, 58980], [-10303, -21983, 201, 65964, 64610], [62416, 30132, 50805, 55433, 47271]], [[35199, 42359, -13817, -9818, -7819], [53446, 8684, -43104, -53692, -11928], [-8789, -49548, -63651, -19588, 15676], [-41292, 11323, 2387, 62568, 29737], [43048, 45420, 44897, 26743, 6531]]], [[[-5281, 13871, -8536, 38213, 62945], [71814, 83679, 130309, 107277, 107753], [69467, 124512, 102125, 54726, 32195], [-43765, -78905, -109841, -137450, -68497], [-65306, -89341, -127622, -79162, -111612]], [[-13924, -50506, -60184, -93999, -17163], [4836, -1240, 61459, 63331, 11041], [54480, 93636, 71551, 70511, 645], [-63310, -82414, -80282, -60830, -23834], [-18750, -42361, -24235, -43540, -28343]], [[-9316, -81788, -44167, -97187, -61784], [-10187, -16625, 19636, 15055, 18214], [68925, 44647, 106069, 74033, 41895], [29365, 14785, -33532, 4034, 35989], [59457, 37501, 43291, 29732, 25669]]], [[[-72697, -46228, -68691, -42664, -69249], [-35882, -73249, -49839, -85872, -48949], [-13936, -16843, -20796, -46825, -84368], [-37739, -13617, -2048, -46880, -15981], [-2870, -4658, -49886, -36313, -63806]], [[15732, -8793, 13370, -31790, -12327], [-3550, 14811, 36981, 12079, -6847], [21572, 49867, 53820, 36518, -9796], [-28696, -9555, 61199, 31817, 25843], [-26941, 9400, -35683, 7065, -15160]], [[57093, 25023, 59534, 55507, 66816], [73238, 88550, 58787, 47860, 25475], [92323, 64913, 68440, 46911, 57385], [19835, 9968, 51699, 88754, 62177], [-32190, -19063, 22234, -8105, -44649]]], [[[38588, 10898, 61713, 88405, 57787], [54796, -21587, -44770, 87493, 105335], [47333, 2902, -102265, -11110, 133952], [38833, 58311, -106938, -63055, 34632], [8011, 27129, -14171, -83961, -30464]], [[-80496, -50896, -104512, -37608, -34681], [30726, -93532, -93837, -11653, 9755], [34778, -32550, -135114, -75349, 83132], [77940, 65114, -92057, -124894, 29600], [29512, 98435, -23783, -86623, -3436]], [[-7278, -25770, -28508, 25617, -13871], [36928, -16419, -65391, -22057, 46476], [99679, 34013, -141644, -21729, 44643], [68066, 67957, -106193, -116292, 30807], [93349, 133848, 29479, -85164, -11095]]]], "params": {}, "opset_version_number": -1}, {"id": 1, "name": "conv1.bias", "op_type": "Const", "inputs": [], "outputs": [], "shape": {}, "tensor": [3547086592, -6267808768, -17604833280, -20851793920, 15450312704, -17809958912], "params": {}, "opset_version_number": -1}, {"id": 2, "name": "conv2.weight", "op_type": "Const", "inputs": [], "outputs": [], "shape": {}, "tensor": [[[[-12709, -21503, -16971, 509, -10517], [3758, -1361, 1537, -9862, -6347], [-14931, 17939, 39956, -9283, -22410], [-4447, -522, 35256, 34758, 9700], [-22081, -17046, 14925, 34211, 6705]], [[14725, 27043, -4128, 12641, 2427], [-10954, -9235, -26768, -1367, -13460], [-21947, -12992, -4270, -35453, -25784], [-24582, 23709, -21075, -4765, 21007], [11068, 38927, 33829, 15446, 30649]], [[-34389, -22464, -30005, -31710, 4447], [-25577, -21745, -27386, 4177, 24188], [-2372, 2073, -19093, 10578, 11690], [1090, 86, 18262, 40002, 32818], [4678, 17388, 7333, 20876, 27813]], [[-16626, -11375, 19437, 29443, 19392], [-17359, -33975, 18050, -6682, 13902], [-15694, -25684, -11518, 2611, 9549], [-38962, 3337, 8060, 7222, -9893], [-24743, -31045, 192, 5048, 26971]], [[284, -38041, -29086, -32005, -6166], [-17193, -17878, -30676, -29775, -10733], [2773, -17990, -30877, 8665, -16269], [33798, 16285, -12358, -9084, 25054], [44872, 25447, 32036, 36779, 40400]], [[-12524, -10023, -32818, -27660, 3997], [-2732, -12642, -40294, -33755, -22643], [-8866, 18425, 1047, -20115, -21877], [5695, -16421, 17742, 12915, -1584], [113, -10479, -6800, 44405, -1492]]], [[[-63879, -32743, -1153, 7268, 39478], [-36519, -23166, -8168, 19321, 42340], [-28050, -59601, -41905, 31520, 54475], [-64125, -71510, -33608, 47399, 50186], [-72528, -54910, 22938, 17962, 49469]], [[-20964, 22320, 13099, 6229, 47499], [-15485, -15005, -3073, 24033, 12732], [-63793, -20172, 41250, 45808, 20426], [-61404, 605, 45749, 49016, 37659], [-33418, 23991, 44464, 17786, 42537]], [[-24402, -32996, 1798, -4669, -24057], [-60271, -53127, -2568, 893, -8791], [-30426, -27193, -25623, -755, -23277], [22848, -2234, -34527, -6508, 7004], [67478, 25198, -14730, -27370, 9320]], [[-40659, -24678, -47170, -31589, -2211], [-21448, -57045, -57031, -28918, -24742], [4704, -44705, -50466, -45121, -37958], [-21960, -20949, -17778, -28587, 10829], [-27419, 5515, 13487, 14959, 36149]], [[-9332, 16910, -13704, 4925, -4816], [9618, -8974, -34337, -24779, -6625], [1746, -19352, 4930, -5945, -4148], [20479, -5232, -28110, 924, 2400], [20721, 8500, 1646, -7572, 18714]], [[-24049, -21484, 25567, 28282, -16400], [-13498, -22926, -2709, 14390, 19797], [-41071, -24933, -13699, 27154, 8847], [-15831, -37512, -25830, 1106, -14031], [-12645, -12780, -9893, 22997, -1048]]], [[[9824, -14831, 6431, 8523, 8777], [-26890, 8311, 53213, 33514, 10052], [-16997, -4074, 38425, -19069, 11790], [50883, 7218, -36696, 24211, 58026], [22006, 14551, 28888, 30913, 33657]], [[-29863, -44927, -52352, -33404, -31347], [3306, -11283, -42624, -9878, -22892], [-46055, -1636, -12603, -21077, 6124], [-52033, 3488, -17996, -21390, 31882], [-46058, -33020, -24025, -9994, 14771]], [[-13957, -5508, 18162, 19004, -2239], [19502, 18284, -10028, -28435, 2197], [40687, -12111, -33529, 13341, -16560], [9281, -29693, 18980, -29242, -56299], [10833, 23442, 10094, -60092, -11528]], [[-2701, 6226, -4757, -6817, -26822], [2919, -12861, 8720, 6494, -16866], [-16578, 35419, -11762, -29383, -30322], [3971, 22650, 19474, 4592, 40688], [-9903, -27166, 18102, 42080, 37511]], [[-12008, -4580, 23245, 10690, 15424], [11401, -27772, 2849, -28037, -19221], [-21221, 9441, -14001, -21781, 6040], [-24511, -19067, -30614, -621, -30070], [-58042, -42212, -37474, -39989, -35305]], [[5162, 7455, -13168, -32769, 15575], [6181, -56588, -18770, -34248, -44144], [25178, 9984, -42438, -48929, -34139], [-15859, 28078, -35026, -48728, 16919], [-20526, -55615, 18267, 1998, -41757]]], [[[-9837, -18601, -20161, -8299, -63815], [-13893, 7512, 22095, -2538, -36101], [4838, -15382, 5668, 10984, -44135], [-5107, 5318, 52731, 36221, -22432], [-6649, -2090, 27658, 23775, -42218]], [[75236, 27030, 13331, 10778, -19154], [39405, 27471, 17479, -41547, -28608], [20499, 26055, 6997, -31461, -28472], [36970, 41814, -5500, -1971, 9656], [26423, 31952, 26409, -22062, 19387]], [[-9541, -18211, -1547, -30363, -29140], [-35292, -6878, -13181, -16802, -5257], [22454, 35113, 38394, 13211, 13254], [21026, 5989, 2452, 3295, -19620], [-9354, -31771, -14060, -24224, -41382]], [[-27867, -17595, -20006, -38137, -10005], [-11890, -17080, -47674, -23657, -8026], [32499, -3286, 5642, -5926, -27813], [-2287, 27173, -5127, 10801, -20627], [-29450, 5942, -4170, -26742, -12734]], [[64301, 51633, 28474, 10626, -16114], [51393, 24528, 11372, -17118, -30479], [30582, 16838, -21503, -22028, -20572], [11900, 11358, -5097, -24328, -17209], [12177, 4703, 5449, -12193, -9846]], [[-16657, -18921, -71512, -47780, 2404], [-16242, -1843, -20115, -33857, -19302], [2561, 38704, 37408, 24786, 2191], [2641, 12185, 21213, 36335, 2959], [10062, -18855, 22465, 35938, -16794]]], [[[8813, -15380, 3498, -12457, -26546], [3872, -19522, 9293, 12220, 21205], [-32122, 22726, 19878, 7737, -15794], [-19961, -6478, 2229, -14860, 2567], [-5349, -34204, -6488, -28093, 12686]], [[60853, 17703, 46858, 41052, 15314], [-14100, -10575, 12196, -3050, 30793], [-6964, 11950, -26939, 1306, -22639], [-6800, -3874, -9238, -20807, -10218], [23174, -3642, 12527, -8739, 28145]], [[-23083, -17276, 1307, 30595, 27836], [60133, 63099, 14949, -10315, -16564], [9490, -12916, -6797, -29106, -14849], [-72635, -53611, -12766, 4964, 7126], [-57041, -39596, -15117, -35310, -48186]], [[86080, 92196, 18834, 2719, 12928], [67624, 40901, 40055, 19688, -12652], [11269, 35934, 46085, 23371, 2437], [19101, 26550, 4115, -5257, -13671], [9000, -10676, 20541, -1434, -19201]], [[8926, 45695, 17894, 10802, 27556], [-38103, -8432, 5816, -12136, 6803], [-39543, 8370, -12257, -10731, 5819], [-14154, -11959, 4819, -4978, 6132], [-23961, -40283, -5395, -16387, 27730]], [[56192, 14946, -31650, -31392, -3191], [34397, 13709, 6724, 1328, -2968], [-35215, -18357, -7076, 2061, -4570], [-16047, -35406, -29911, -12893, 2813], [-42625, -47605, -19625, -18457, -30567]]], [[[16116, 18035, -29510, -21880, -53768], [-20738, 221, -2926, -23413, -22548], [-45237, -15488, 9175, -1600, -10555], [-49399, -36154, -24799, -17169, 21835], [-12459, -26305, -35393, -17347, -30462]], [[23719, -236, 52182, 63097, 33547], [10017, -3520, 1096, 8932, 22024], [5116, -3959, 4248, -13823, -22891], [-13089, -20754, -33793, -54445, -65671], [-45822, -41626, -67729, -56560, -64070]], [[-42298, -18030, -13161, -6263, -36833], [-26103, -22111, -25421, -47219, -2728], [-13449, -33309, -30861, -30655, 9295], [-12244, -62196, -41243, -46468, -14512], [5377, 21040, 49801, 44524, 42785]], [[18322, -30778, -6499, 10375, 17996], [27121, -5573, 12333, 26521, 66575], [-9237, 12728, -36189, -15277, 5203], [16163, 43422, 45891, 39854, 38299], [-14858, 25746, 16793, 44954, 59238]], [[13445, -843, 5230, 9107, -6160], [3648, 20934, 23360, 5410, -5216], [-35944, -30000, -40438, 2216, -695], [16000, 67405, 31348, 46434, -2], [-27767, -18769, -35804, -46669, -51743]], [[8441, -6883, -41110, -18630, -21525], [51325, -18536, -22516, -52446, -2085], [27155, 18834, 27221, -17705, 28746], [81204, 2287, 12167, -42042, 28173], [54107, 10842, 20676, -36795, -2733]]], [[[10700, -4134, -24655, 3944, 144254], [12782, -18310, 15634, 50982, 87482], [-22021, 16922, 76190, 29238, -63660], [13962, 31422, -1218, -76168, -61110], [9950, -26766, -62012, -58261, -91715]], [[-12988, 4158, -4232, -16963, -48756], [17691, -7057, 17094, 4113, -41100], [16232, -1408, -31152, -15812, 6972], [17034, 15526, -19537, -18415, -8066], [35677, -3399, -5074, -29605, -1717]], [[-30545, -24674, 4932, -33513, -43509], [-10786, -13361, -16814, -39081, 15342], [-296, 7963, -49435, -3990, 63141], [-15904, -8169, 14208, 106940, 54577], [8521, 53435, 100906, 71436, -28464]], [[4028, 6708, -16557, -34635, 47142], [-25605, -26317, -697, 38541, 6233], [-19111, -26753, 40438, 41730, -59394], [-29243, 35056, 38522, -10290, -48103], [9994, -2879, -16476, 11755, -20846]], [[17050, 12348, 26513, 1209, -34559], [30113, 42210, 30497, 13962, -43491], [32439, 47283, 16156, -23501, -55743], [-11382, 12547, -8969, -29132, -43080], [4495, -34075, -27335, -5700, -40836]], [[3282, 13748, 15962, 2640, 37645], [-2145, 6993, 23347, 35778, 14071], [-6692, 13968, 39914, 23247, -61640], [29441, 8168, -13153, -49272, -14381], [-23118, -44590, -69374, -44311, -18633]]], [[[31008, 6404, 50157, 56106, 39355], [-3132, 17648, -13897, 11911, 9585], [15164, 7493, -26596, -23884, -13600], [16040, 18325, -38363, -35623, -4488], [10727, -14618, -30393, -46437, -37277]], [[-32830, -29390, -15006, -46300, -6519], [6272, 3707, 23238, 15482, -28063], [-22001, -15311, -21259, 15749, 3220], [15463, 24672, 8042, -7871, -7034], [35205, 18217, 14301, 37808, 31742]], [[-24702, -23188, 2399, 5587, -13456], [-32384, 1411, -18744, 187, 16251], [25995, 18206, -26954, -18134, -30036], [992, 1919, 577, -45618, -19504], [4768, 13844, -17433, -18052, -1015]], [[20813, -9621, -4956, 25193, 45109], [-8968, 50343, 51308, 4121, -25318], [4668, -1169, -10436, 20155, 16876], [-6719, 7953, 10754, 23858, 26412], [21992, 13569, -10606, -28827, 10553]], [[33004, 31047, -22296, -63363, -81417], [60854, -1589, -20137, -12320, -73201], [50444, 16344, 19680, 3878, -46719], [38588, 46540, 2234, -1492, -47091], [60390, 13730, 16071, 8530, -28906]], [[-19447, -15769, 22188, 42951, 23047], [925, 30, -20199, -47291, 5183], [-15249, -9806, 1468, 11942, -19521], [-12360, -30062, -1302, 26488, 3562], [-14234, -20294, -7081, -10298, 19830]]], [[[35736, 6631, 14894, 30929, 19627], [9001, -17532, -14695, -20188, 10281], [17217, -23740, -42292, -38224, -36806], [-3265, -8782, 11281, -18987, -43785], [-17443, -18297, 11312, -7454, -33584]], [[-58026, -8216, 20667, 22436, 53623], [-53663, -24736, -14350, 31371, 51211], [-42336, -40296, -5526, 22154, 46259], [-56071, -8621, 15721, 13070, 32406], [-4269, 10076, 6583, 22078, 40916]], [[38486, 583, -16847, -1746, -16939], [17833, 758, 21863, -24358, -24982], [35577, 23732, 23261, 5762, -19284], [24398, 29401, 8467, -13957, -38023], [53293, 2722, -22910, -377, -8445]], [[54290, 58106, 16645, 10290, 486], [-909, 357, -14342, -9474, -31785], [36748, -370, 353, 5377, 15692], [-16414, 17889, 7102, 42460, 5453], [-23268, -9776, 4757, -3338, 7473]], [[29013, 27120, 17712, 8048, 31701], [-25375, 1475, -22329, -15233, -14395], [-37097, -17492, -24421, -28037, -23465], [-40278, -27147, 3752, -13772, -14257], [14100, 6417, 8045, 13387, -13623]], [[-447, -12719, -34286, -36816, -20421], [-933, -22341, -13616, -26544, 7617], [-25530, -14471, 3112, 29080, -7758], [-10696, -12882, 7066, 35538, 41761], [19159, 8135, 19284, -8238, 46854]]], [[[-62076, -10757, 3516, 37768, 59099], [-56559, -41466, -37806, 20619, 40378], [-11133, -55667, -47521, -17738, 24505], [64334, -8231, -34877, -47901, -27008], [76417, 16415, 18770, -13638, -33810]], [[14259, 11514, 19509, 9614, 15624], [542, -9180, 20003, 8043, 8477], [-28908, -43601, -30747, -7556, 23219], [-40939, -30800, -31122, -18828, 7976], [-4703, -38746, -27771, -19464, -21803]], [[-32692, -14664, -13139, 10478, -1770], [-33815, -18820, -14518, -3542, -7627], [-14033, -28401, -58747, -35021, -32900], [46385, -16500, -26683, -48459, -36695], [51006, 41426, 27637, 8226, -33620]], [[62592, 37445, -15552, -9993, -38261], [-913, 44669, 10852, -7529, -17425], [28331, 15400, -3722, 7837, -19519], [-18296, -4288, 26467, 17891, 1573], [-27490, -21166, 7831, 26867, 25197]], [[3821, 4390, 44227, 13063, 3320], [-10068, -11783, 8251, 3558, -12922], [-42812, 21997, 4186, 26919, 33220], [-10887, 440, 19973, 24885, -5207], [16667, 23767, 10799, 19339, -20021]], [[-39346, 522, 3373, 6825, 18300], [-51144, 18087, -10742, 20093, 28863], [87687, -7677, 14891, 19785, 22242], [96807, 67634, 28827, 12366, 7574], [-7215, 15462, 26188, 34626, 17791]]], [[[40559, 65697, -7108, 16973, 44593], [10044, 57128, -26079, 24647, 32423], [17506, 47599, -18939, -7018, 2833], [-24570, 6014, -40376, -56413, -36223], [-20963, -10651, -50091, -18274, -40323]], [[-18052, -8253, -23725, 13831, -11699], [-5814, 713, -27459, 13060, -4878], [-40620, -10342, -3055, -2915, -24698], [-40919, -19519, -14856, 12238, -31323], [-15874, -29461, -15435, 4699, 1710]], [[8449, -10898, 25046, -20369, 15821], [-18402, -19955, -6684, -26041, -16857], [-7973, -41045, 4196, -18476, -4738], [-12850, 5618, -15570, -9627, -7839], [30878, 7628, 25371, -6180, 29449]], [[14658, -24444, -36165, -23140, -15605], [-21190, -44417, -42180, -47954, -42993], [1597, -31130, -27974, -22354, 4844], [73444, 67873, 67246, 92671, 88426], [24337, -15339, -7909, 11638, -32429]], [[22824, 13605, -1436, -367, 18085], [7656, 14774, -10260, -10739, 12326], [-285, -7846, -4389, 15774, 7112], [582, 11837, 11430, -18789, 12433], [-23127, -22387, -27166, -8350, -24944]], [[-19255, -31127, 76856, -30949, 11697], [-16446, -18312, 43663, -49750, -16961], [-28466, -51168, 58331, -45178, -13173], [-3429, 5936, 59166, -17215, 11268], [-16016, -8339, 28616, 3337, 11404]]], [[[-4164, -17441, -1068, 5965, -23334], [35403, 14452, -20035, -22345, -47671], [15026, -6275, -2509, -3297, -23937], [-2853, 33726, 1060, 40155, -1216], [5561, 2249, 8271, 6626, -9387]], [[14688, -15232, -28299, -9982, 36474], [-29499, -43948, -30406, -19239, 4838], [-9558, 7475, 7164, 2276, 2607], [3157, 3269, 10405, 2098, -2998], [48020, 19776, 1759, -11513, -11421]], [[47879, -5108, 751, 13290, 29113], [49256, 33183, 48847, 36199, 20550], [25023, 38695, 27960, 37073, 22180], [8031, 8785, 2889, -31583, 1665], [-21945, -48318, -31027, -41436, -11457]], [[30557, 12774, 7707, 30144, 48236], [15648, 35730, 3802, 42283, 29825], [41678, 58726, 58434, 27115, 36181], [13932, -35509, -22931, 22619, 48561], [37995, 21787, 26853, 10663, -2461]], [[16404, -3448, 18471, -5394, 34476], [-15462, -7952, -1771, -21876, 3686], [11711, 1631, -39771, 1330, -14179], [2371, 10092, -5656, -6356, 26358], [42514, 25654, 19746, -1739, 22580]], [[-26341, -17721, -24398, -8650, -24756], [5620, -27270, -27807, -31053, -25517], [-40915, -69210, -78571, -46568, -37006], [-85372, -93669, -87012, -68129, -69941], [-40393, -62110, -70406, -59369, -74774]]], [[[4694, -30655, -21829, -36099, -13076], [8383, -26211, 12576, -5934, -47], [-10904, -3017, 5127, -9107, 11378], [34018, 15963, 32394, 43203, 25377], [24264, 26319, 39376, 44026, 34779]], [[11494, -537, -8128, -16219, -10539], [-10478, 2124, 10311, -9630, 10108], [-18112, -2169, -29385, -36534, -17202], [6900, -6814, -2481, 10148, -19293], [-9508, -10895, 7022, -10582, 11951]], [[-21282, -1233, 8851, 64, 641], [-13689, -11943, -28279, -3737, -12673], [-38163, -25947, -3172, -12844, -20157], [2063, -8789, 9539, -15907, 17362], [2944, 4373, -7046, -4971, -14688]], [[28894, 11896, 29501, -2036, 13662], [9966, 27615, 39459, 29947, 46915], [31887, 26407, 35364, 11735, 28323], [11400, -4720, 1985, -2557, -24340], [-32440, -27915, -40652, -43700, -51862]], [[9869, 26538, 13133, 13966, -1653], [-8068, 17968, 16329, 34941, 29829], [-11658, 8006, -20149, -22518, -2569], [-15088, -12697, -2460, -15728, -10890], [-980, -701, 5323, -17232, -11562]], [[18768, -8756, -20958, -17419, -7486], [15674, -2471, -40820, -18116, -16454], [22325, -7048, -15154, 11865, 4375], [1872, -20769, -26053, -16180, -26388], [-27966, -38139, -46106, -44792, -61076]]], [[[-20334, -15700, -21413, -57122, -51156], [-4810, -6243, 11345, -9807, -62849], [34585, 14812, 10551, 26109, -27200], [32189, 18818, 28607, 8573, 14187], [15074, -12420, -4808, -3430, -16018]], [[1549, -78, -34547, -2741, -22899], [-5553, -6221, -22166, -17700, -46126], [-4616, -896, 26941, -2787, -1886], [21217, 31755, 28487, 35685, 9017], [33949, 19766, 26482, 8827, 19330]], [[55179, 63803, 38074, -10021, 8403], [-16395, 5524, -9019, 18208, -14111], [-10829, 18120, 10195, 22121, 4003], [1277, 5690, 3215, 40712, 13791], [-14352, -13419, -7365, 13623, 25346]], [[12188, -39115, -3428, -8823, -30188], [-1275, 11142, -22053, -16812, 5371], [23220, -2531, -23993, -31989, -9666], [-24121, -3941, -34423, -39614, -44491], [-26821, -17285, -5816, -36114, -65769]], [[19287, 10914, 31838, 51683, 76022], [-8452, 650, -9108, -16710, 17968], [-2516, -18043, 272, -13228, 5471], [-18921, -31114, 1600, -17425, 12148], [-74034, -31272, -51508, -24680, -57097]], [[6653, -10654, 47540, 124291, 40524], [2065, -16910, -7305, 51507, 62008], [-52684, 16958, -4580, 21210, 61084], [-36627, -7691, -22670, 27295, 20955], [-101538, -49446, -35473, -11196, -31831]]], [[[-6319, -28108, 8197, 20952, 18734], [-7606, -4325, -8502, -4479, 37713], [-23349, 24673, 2015, -51027, 39009], [-37251, 4532, 8480, 17370, 12952], [-56286, -44189, -1307, 22344, -2267]], [[13849, -10479, -34661, -63532, -29860], [-1855, -14527, -1442, -29979, -19815], [30750, 9872, 7574, -38875, -5083], [16815, 5083, 337, -12791, -24104], [26009, 28404, 1236, -18682, -12540]], [[-3882, -16128, -31973, -38611, -6987], [8653, -14541, -19972, -56650, -16190], [-5720, 11005, -4405, -47656, -54479], [-34763, 12799, 20677, -24224, -40288], [-22718, -14088, -562, 18365, -11880]], [[16529, 40200, -4775, -12228, -15504], [-19339, 38562, 19914, 15184, -22426], [-24174, -54772, 6694, 13968, 8059], [-6680, -54847, -43062, -28995, -9277], [-11926, -22295, -55706, -11342, 16258]], [[-30489, -47491, -29517, -57169, -11427], [13482, -14197, -37509, -67510, -55785], [7202, -17868, -25605, -37180, -56284], [14262, 21193, -27483, -46726, -37318], [45016, 600, -27375, -26889, -37215]], [[23676, -3730, -22277, 60015, 21016], [22470, 58765, -25761, -38491, 30667], [-44906, 68591, 83201, -50033, -38949], [-26542, -33719, 85727, 30640, -10249], [48806, -49218, -51926, 46000, -4511]]], [[[59298, -72187, -95738, 21947, 21113], [68676, -87820, -66514, 38046, 28246], [47473, -103061, -72322, 14502, 650], [3671, -79348, -9999, -13586, 16242], [11796, -53540, 6502, 977, 25020]], [[-67677, -62493, -21085, 34211, 34528], [-49056, -45699, 42656, 49833, 25431], [-35137, -10815, 32423, 11094, -1798], [-18119, -13315, 15135, -9343, 8568], [-26149, -3418, 13355, 18442, 16492]], [[-12350, 59276, 80890, 34553, 35914], [-7231, 67349, 3354, -57732, -12592], [-2533, 42844, -43690, -56708, -62470], [18553, 32321, -42199, -53268, -23880], [24191, -15218, -1857, 13176, -11610]], [[28677, -14806, -11249, -514, 18134], [18877, -22597, -23728, -13721, 25968], [-31965, -36566, -19316, 34749, 36135], [-41573, -48881, -40389, -5514, -5457], [-55399, -59010, -33735, -20486, -22373]], [[-60462, -71597, -56807, -1797, 35358], [-39777, -58307, -40659, -1571, 35802], [-39960, -21563, -16023, -6767, 43398], [-27330, -31711, 3302, 3292, 29864], [-22038, -19517, -12253, 22114, 48102]], [[47287, 73246, -53532, -34134, 4646], [58941, 41185, -49628, -48614, -30056], [51214, 26245, -57425, -43204, 11031], [43426, -9579, -44834, -18725, 9456], [70189, -11433, -59914, -19406, -30990]]]], "params": {}, "opset_version_number": -1}, {"id": 3, "name": "conv2.bias", "op_type": "Const", "inputs": [], "outputs": [], "shape": {}, "tensor": [-5623543296, 46183874560, 51665215488, -20037756928, -1913803776, -27581863936, -36308013056, -7313241600, -2764438016, -39311618048, -17705052160, 43182026752, 4912252416, 4311239168, 44921741312, 13107815424], "params": {}, "opset_version_number": -1}, {"id": 4, "name": "fc1.weight", "op_type": "Const", "inputs": [], "outputs": [], "shape": {}, "tensor": [[-11345, 877, -12794, -11139, -15159, -13467, 12452, -7052, -13330, 1923, 6751, 8016, -1821, 12996, 10022, -8566, 16520, 19667, 17103, 3595, -3967, 15868, -509, -13352, -12446, -3700, -903, -946, -10638, -10281, 5349, -4167, 9394, -11711, 8701, -3960, 9740, 14773, 6628, 14996, 135, 9730, 13997, 7048, -9566, 6056, 17289, -896, 4409, 12940, 13753, 18777, 13734, 23502, 24193, 3795, 1330, 10828, 470, -1698, -3252, -3795, -12167, -6289, 15046, -10873, 4993, -5591, 4519, 8733, 14152, -7507, 3628, -10004, 2857, -6071, -5885, -14974, 3822, -25229, 10152, -11804, -14521, -15351, -21412, -12763, -6415, -13100, -5489, -21608, -2458, 1230, 10305, -13059, -14717, 1162, -7043, -10853, -834, 1107, 13503, 7576, 1189, 8349, -12743, 6871, 1555, -15966, -17863, 4675, 3696, 5422, 8959, -6592, 1022, -17588, -5803, 5495, 10019, -3918, 9957, -4839, 2931, 2695, 7032, 10109, 7076, -763, 3777, -20266, 12978, 984, -10054, 4631, -25035, -4301, -5912, -6482, -8873, 6473, 2464, -3033, 8275, -16103, -8938, -1094, 5223, 1109, 8497, -20922, -6627, -5856, 7544, 11063, 17858, 6992, -13423, 9328, 6546, 18028, 7111, -14672, 14713, 2946, -1193, -10195, -10271, -9636, -8532, -14709, -22746, -13009, -15534, -24309, -12120, -3373, 5943, 6536, 4544, 10807, 14922, 5540, -13724, 5320, -13085, 5336, -65, 9950, 7110, -12030, 8400, -4205, -3535, -9641, 5506, -13061, -1205, -3728, -10853, -17921, 8491, 1026, -12726, -10268, -17563, 6273, 285, 4406, -16938, 19799, 1042, -3779, -2115, 12891, 3927, 14193, -4804, -4891, -9087, 10025, 14126, 5444, 254, 1282, 7306, 4860, -13997, -14011, -5121, -7523, 12330, -13077, -6186, -13277, -9734, 14117, -11301, 9, -2928, -3060, 10142, -3590, -9625, -6277, -2367, -5953, 4895, 12551, -6415, -14209, 6917, 12980, -146, 7429, -1691, -4467, 7549, 9341, -7885, -9224, -12864, -17327, -7967, 11083, -11338, 4953, -4121, 5671, 2801, -9002, -11002, -9295, 4687, 2426, -8467, -538, -873, 6455, -3927, -24011, 2143, -2811, -22079, -28034, -24669, -7264, -18289, -2124, -24842, -11369, -23271, -10262, -3770, -15157, -20452, -11431, -18569, -20020, -5180, -10057, -10990, -9173, -10920, 6267, -10786, -15617, -2682, -13111, -8011, -16674, -2759, 3499, -16415, -2147, -1160, 2011, -501, -2956, 8294, -2037, -1220, 4903, 1802, 4032, -6222, 20407, 8645, 6680, -2735, 36621, -1270, 1354, -18276, 8564, -2549, 13087, 13127, -13573, -4810, 14864, -24268, 3811, -14533, 3897, -4348, -3752, -6421, -8525, -21, -5487, 302, 16498, -3242, 1868, 10547, -779, 26421, 21435, 5419, 12019, 15732, 13925, 3742, 1924, 3328, 5939, 5543, 12629, 11916, 2404, 3023, -5501, -14970, -5297, 12836, 18915, 9460, 9798, 4281, 12505, 241, -14286, -2402, 1188, 5824, 1997, 3774, -5763, 5482, 16772, 23728, 14431, 20012, 8823, 21793, 19380, 9097, 5190, 24021, 1704], [-9945, -317, -7548, -9298, 2175, -9348, 909, -11547, -12851, -12064, 3899, 11159, 5367, 2660, 13707, -3327, 24400, -1514, 10536, -12983, 11570, 10259, 13121, 8786, 8128, -998, 7548, -4796, 2403, 16407, -6124, 3098, 16730, 4058, 17597, -5468, 14853, 6949, 1447, 8544, -15318, -10217, 8423, 8380, -14575, -24434, 6989, -5996, -9869, 1715, 21175, 5474, 15535, 24782, 2692, 8485, 9752, 10222, -18296, 3718, 5054, 18812, 11071, -3480, 2201, 10232, 6159, -6838, 72, -3294, 28698, 12380, 660, 11744, 18250, -30571, -20517, -24997, -26854, -1771, -12144, 2508, -7132, 3169, 1087, -3598, -11019, 6692, -11737, 3739, -12462, 14348, 11702, 17966, 10956, -13309, -4761, 13747, -6202, -5075, -28508, -25022, -10289, -11139, -30512, -2465, 17481, -376, -1186, -1845, 11794, -7819, -1632, 7394, -12439, -16368, 4006, 10184, 1705, -877, -17835, 11057, -793, 8389, 18738, -12307, 857, -7319, 2671, -23545, -4344, -3789, -8374, 1409, -11075, -9667, 835, 6848, -6628, 6651, -5559, -2263, 5843, -9727, -9570, -12638, -8686, 6978, 1792, -18000, 1895, 5548, -110, 6374, 896, 13831, 2164, 5639, 8108, 30334, 12288, 4117, -3370, 23431, 21692, 1517, 8162, -6380, 26459, -8058, -6003, -18697, -11178, -16484, -23265, -6469, -4838, 87, -1717, -2438, 4099, -4963, 3041, 4742, 17699, 9999, 7068, 7402, 5497, 11645, 6280, -1645, -11744, 6214, 16786, -3932, 5052, -6439, -2455, 1738, -8682, -1868, -2017, -12458, -4100, 1386, 10343, 3668, 523, -13319, -6119, 13239, -3588, 14135, 160, 24167, 11323, 6725, -8753, 6789, -9602, 380, 4603, 7155, 12504, -5780, -23373, -11421, -11216, -15955, 9756, 2725, -924, -9568, -19138, 4029, 13363, -10700, -918, -25429, -14118, -8944, 16215, 13457, 2832, -7521, 5329, 7028, -9298, -11298, -3542, 11910, -12619, -8910, 11371, 4252, -14416, -5329, -9663, -13612, -5613, -6271, -10238, -1053, -15260, -8097, 933, 10833, -9616, -8691, -2608, 8433, -6333, -15466, -9947, -10797, -6757, 12435, 1115, -21859, -7534, 4464, 27122, -4614, -19574, 7129, 4941, 3966, 8811, 1997, 6241, 3010, 2958, -5084, 7235, 883, -3984, -24155, -26410, -4442, -9884, -25351, -540, -6598, -15721, 2134, -6306, -261, 1738, -8679, 12949, 6543, -19629, -7288, -14405, -3807, -5423, -3336, 3605, -12050, -3758, -932, 2813, -998, 4953, -7988, -8120, 7654, 12351, 4320, 13306, -1644, -6840, -918, -2503, -688, 326, -22948, -19054, -441, 17373, -615, -23438, -8429, -4513, 6123, 7252, 5007, 3940, 10990, 10461, 8886, 7707, 7866, 7045, 8130, -3120, 697, 10073, -2819, 10866, -14348, -5069, -15732, -9136, -11604, -684, -36, -19048, 8418, 5520, 6838, 6920, -822, 16513, -5391, -3877, 7614, -6668, 2574, -5004, 3277, 5854, 11394, 5899, 3114, 17476, 822, -3601, 7868, 12619, 19994, -2075, 711, 4647, 13965, 5712, 9126, 35733, -5760], [11192, 6786, 10360, 9953, 11278, 5946, -5714, -9938, -1406, -12686, -12564, 7344, -2244, 1614, -6239, -3038, -10060, -2307, 2395, 10783, -12255, 8323, 4087, 9592, 1649, -4331, -10046, -10156, 4378, -4645, -5330, -7804, -12526, 10671, 589, -12440, -183, -12295, -7793, 2377, -7948, -4970, -9741, 3017, -6926, -3902, 10716, 5275, 12410, -1379, 10355, -12671, -7596, -12112, -8651, 12858, 8622, -7280, -12523, 2854, 1129, 11486, 1465, -10660, -5489, -3720, 35, 4736, -8442, 10362, -211, 4284, 10356, 2014, -9418, -9381, -11273, 2363, 9992, 362, -5078, -8808, -8466, -2182, 10289, 7935, -3491, 3136, -8631, -4897, 12379, -11085, 1341, -9858, 2607, -9365, -3824, 10058, -8803, 12461, 6871, 864, -13329, 8900, -12248, 4443, -12766, 3752, -4030, -9875, -10838, -4772, 6954, -3965, -10731, -9132, 1876, 9747, -13263, -484, -2797, -2937, 6471, 10273, 9276, -8468, 10677, -1318, -887, 714, 4844, 5900, -12817, 2690, 11466, 6931, 3966, -8586, 7020, -1442, -10817, 4311, -5823, 4472, -5561, 1757, 1940, -10886, -6251, -1846, -12930, -3676, -11575, -4039, 7892, 5095, 4796, -1461, 9598, -9651, -2365, -625, -12005, -10432, 153, 9530, 2456, -11259, -1137, -1028, -8899, 7784, -9821, -3658, 3532, -5655, 11800, -12217, 5608, -12591, -997, -3780, 2266, 8699, -11729, -10264, -4802, 502, 878, -11891, 10083, 11939, -1502, 1313, -2714, -6769, 4422, -5136, -2323, 11837, -11007, 5396, -13260, 11409, 10540, 1262, -8638, 3580, -5052, -12212, 2495, -3504, -2206, 1917, 359, -4810, -3448, -278, 2966, 6230, -3575, -8108, -3451, -8409, 11034, 11379, -10345, 10982, 7867, 9687, -5125, -5426, 2278, 702, -9907, 823, -659, -6439, -6291, -12151, -8074, -11340, -6626, -8491, 39, 12048, -10294, -1983, 10757, -8395, -7421, -12495, 10140, 10257, 4978, -10339, 1058, -12736, 2145, -4100, 5183, 5497, -9250, 7371, -2534, 1393, -8895, 8449, -9590, -2216, -845, -6474, 4816, 2648, -2588, -10366, 1985, 2187, -13899, -11139, 8360, 11146, -2580, 9342, 1453, -12708, 552, -11222, 1464, 8260, 6739, -10379, -11394, 8773, -12033, 7736, -52, 4806, -9254, -2741, 503, -13749, 3567, 1987, 4476, 11920, -11000, 1499, -12516, 3655, -1704, 9403, -6686, -3745, 11251, 10366, -4636, 5063, -1064, -5934, -13271, 9098, 11345, 11569, 5704, -445, -7978, 1235, 12773, -12234, -6900, -9273, 1884, -1497, -2115, -11110, -2821, -10883, -4430, 12587, 3947, 7652, 11589, -11700, 7248, 7912, 6284, -4221, 298, -9987, 3815, -10362, 3967, 1156, -7393, -4591, -1613, 8881, -7540, 2854, 1653, -4708, -10038, 11653, -116, -2843, 349, -1333, 9650, -11099, 8108, 4282, 9019, -13513, -10469, 10528, 9177, 8279, -1063, -12488, 7003, -12300, -2855, -11161, -6449, -7316, -9779, 6288, 11844, -2944, 5190, 1124, -2617, 521, 7178, -3485, -12757, 10621, -9785, -8694], [12661, -10556, 15584, -13156, 5054, 8200, -9550, 4698, -164, -1257, -10875, -15564, -14650, 964, 7873, -22, -15058, -3470, -6724, -6399, -7680, -6154, -10242, -2987, -8664, -1370, -10156, -19429, -5018, -9730, -19232, -4452, 2427, -1347, -15218, -2170, -8791, -2493, -20224, -5997, -2728, -9208, -12564, 5809, -5373, -2082, -6634, -14604, 3014, 14382, 1454, -11038, -15507, -16712, -5294, -14296, -3944, -3078, -19260, -13265, -2197, -1113, -13294, -11986, 6279, -3860, -10072, -17011, -13933, -7832, -8007, -1954, 12354, 158, 5957, -5349, 2759, 5826, -6463, -19035, -573, -12764, -2494, -442, 8346, 6036, 5705, 14595, -827, -3468, 3438, 4056, -878, 17623, -14345, -8551, -19225, 1963, -3981, -12845, 6602, -9128, 4829, 9126, 8526, 11219, -4283, 4372, -18146, -16165, 1848, 4209, 10671, -11728, -11717, 6061, -7509, 9286, 1289, 2969, -4493, -3109, 7984, -3606, -14440, 13298, 14550, 13243, 15572, -10347, 16766, -1710, 746, 5519, 2906, 875, 1023, 5659, 4602, -6023, 20483, 14988, 10325, 15474, 17769, 5742, -487, 262, -4165, -11400, 12228, 7039, 25409, 18598, -3933, 9038, 6388, 22397, 4280, 3224, 3419, 18153, 3796, -1228, 13455, -9048, 9783, 8281, -9203, 14787, -37, 270, 15257, 14776, -1957, 1839, 5633, 2384, -1961, 6110, 2639, -677, -13332, 14657, 16006, 1097, 2102, -10600, -6882, 9676, -9415, -6369, 1757, -3383, -764, -13157, -6923, -6406, -15713, -11513, 11076, -4441, -12048, 8637, 8006, 13552, 952, 678, -3104, 2103, -71, -3285, -6781, 6444, -1239, 6322, -7553, 4536, 696, -9282, 5605, -1106, -15706, 6379, -9406, 1873, -13085, -8267, 15956, 2070, -6938, 8105, -8765, 4805, 1451, -4893, -6027, -2909, 8660, 18753, -941, 719, -9203, 12649, 10823, 3371, -4425, 9293, -9487, -1425, -117, 259, 6313, -1897, 6068, 12240, 10059, -8895, 1948, -5881, 8812, -6601, -11768, 3159, -22506, 31, -12401, -13022, -8432, -5442, -6737, -9872, -10641, -2837, 2296, -16701, 1700, -4983, -12426, 963, 10943, -14498, -8272, 1034, -7704, 130, -7704, -10956, 409, -12893, 4940, -2909, -3594, 1840, -13071, -1112, 11399, 22523, 12763, -840, 3182, 556, -1997, 3288, -5899, 52, 11708, -3162, -8083, -13049, -5140, -9546, -10490, -7338, -1139, 10782, -6075, -1803, -950, 7602, -10369, -8398, 6091, 4413, -2874, 3791, 16681, 8369, 7543, 15863, -14229, 2929, -2194, 6503, -857, 5480, -2041, -4477, -8008, -3039, 25733, 15741, 26774, 16405, -2302, 24662, 5210, 21906, 6740, 6261, -708, -7652, -3651, 8279, 18752, -14413, -3799, -11715, -1112, 18051, -1948, -9985, -14610, -10063, -9387, 9985, -7011, 457, 19640, -593, 4440, 5536, -8697, -3094, -15380, -12031, 5150, -8771, 569, 9831, 2555, 9182, -3937, -11684, -8824, -16180, 10268, -11608, 7423, -1945, 2922, 18635, 10438, 11029, 12257, 8940, 8593, 10984, 8467, 26402], [-6931, -12420, 1637, 5556, 1675, 9501, 527, 1347, -7693, 5725, -12785, -1340, 4734, -4460, -5518, -2222, -8584, 5988, -80, 141, -4398, 1027, -14203, -9315, -2408, 1990, 2882, -18024, -2087, 10346, -6354, -9798, -22832, -1502, -11320, -2233, -17764, -25627, -15538, -7393, 21081, -196, 1937, 3544, 6438, 23335, 16340, 6052, 6185, 6285, -6853, -11003, -12148, -10603, -15399, 3948, 2841, 3266, 8502, 15481, 14450, 9163, 5851, 7208, -1677, -4922, -2081, 16463, 15043, 20198, 4800, 2790, 2037, 6565, 2160, -3803, -7552, 4585, 2614, -14356, 7766, -3054, -838, -5127, -12176, 17782, -3943, 13573, -5089, 188, -4744, -181, -8104, 6396, 18253, 2366, -1260, 3413, -5421, -5839, -1616, 4466, -15964, -3320, 9557, 11204, -14418, -18400, -2385, 21194, 11158, 9415, 1799, 10504, 2184, 11782, -5455, -6421, 13991, 7616, 4254, -3544, 4526, 16442, 4564, -18063, -341, 5409, 1963, -8134, -6798, 4390, -2376, 3470, -7414, 15646, 5365, -14062, 18318, -6824, 28200, 10441, -13518, -5153, 16232, 25162, -2107, -5015, 12020, 2654, -2615, 3345, 8515, -4402, 1260, 2076, 6089, 19206, -2332, 1151, -11883, 6441, 2357, -13875, 8721, -15027, 3076, 14405, 4045, 6776, -15397, 18867, 31606, 17066, 14050, -19307, -5744, -11427, -17139, -5352, -2215, -20125, -6517, -8617, -3902, -5813, 11957, -2314, -8601, 10385, -10679, -2172, 5604, -5937, -6037, 10728, 15886, 902, 5370, 2519, 4665, -15488, -2332, 3477, -2743, -16214, -21600, -6117, -4715, -2930, 996, 3134, 9211, -2234, 4862, -6826, 6395, -8977, 14932, -3955, -7710, -4609, -6967, 3803, -137, -6922, -23248, 2897, -12261, 4018, -22166, -33067, -11634, -22428, -9860, 10131, -10415, 1670, -10010, -17302, 11046, 4038, -7672, -10727, 8285, 22758, -5046, -8185, -6248, -1392, -19970, -18453, -5557, 360, 6490, -15166, -990, -3008, 13468, -9376, -7584, -7987, 11280, 4484, -17327, -9442, -10661, -11031, -2584, -9677, 8872, 13307, 19650, 1314, -15023, -2769, -9086, 4940, -10424, 7099, 24100, 19440, 14794, 5043, 2666, 981, 17885, -2684, 15772, -4559, 8892, 19026, 10496, 10442, 14411, 14233, 10683, 1370, -607, -5178, -8079, 2708, 11262, 9223, -7959, 6406, -6233, 482, 13697, 2973, 383, 13874, 19755, -3768, -4525, 2752, -5014, 6220, -3218, -1692, 11712, 10775, 5110, 16611, 10984, 8690, -10001, 10493, -35, 3928, -3098, 7602, -5147, 12423, -16053, 2627, -10542, 6896, -3009, -5101, -8139, -741, -13410, -22922, -277, -13086, 9614, 13194, -2232, -5491, 6431, -18842, -16433, -9471, -21638, 315, -22020, -27700, -10897, -31643, -7434, -19164, -15929, -25489, -26481, -7880, 10977, 19776, -3049, -15191, -4761, -7113, 11794, -22268, -10461, -32034, -19269, -5266, -21483, 6360, -26130, -22685, -11632, -9139, -6194, -18500, -14226, -10011, -511, -14429, 1659, -7817, 3625, -3329, -12403, 8551, -19067, 2526, -2904, 8116], [-5628, -7689, 3737, -3569, 227, 10052, -12933, 9428, -8639, 1598, -1994, 1037, -7620, -18775, -13178, 1125, 3584, 2994, -8659, -4527, 1768, 21326, 3255, -989, -6118, -9883, 2099, 7066, 10851, 22275, -7894, -6284, 16437, 22322, 11982, 4565, 8818, 7751, 9648, 6086, 5701, 17514, 7337, 7408, -6956, 18398, 6359, 13761, 10843, 21232, -16361, -2131, -2963, 4877, 8015, -6562, 19907, 9791, 22385, -12686, -4313, 17046, 13309, 10779, -2366, -7874, 8922, -8442, -123, -18647, -11107, -23537, 1256, -3682, -7553, -892, -11229, -9577, 13251, -2844, -499, -19895, -3732, -10682, -5850, 2563, -26856, -17909, 1203, 5885, -2925, -12488, 354, -6372, -9582, 3100, -9285, 8703, 14484, 3456, -16789, 3389, 651, 10897, 1569, -17976, -668, 2945, -11339, -20518, -8441, -16005, -2375, -6358, -9572, -3242, 2277, -3405, -17715, -12456, -11075, 10665, 2856, -3028, -11094, -1247, 7968, 9889, -14537, -7998, 2705, -19331, -2206, -23357, -10374, -2683, -16145, -1383, -3598, -9965, -25808, -10972, 633, -4695, -24152, -8082, -4165, 1059, 2455, -14212, -5475, -7035, -10384, -8794, 3449, 16617, -27490, -32375, -15407, -8498, 8829, -6621, -10634, -8157, 4862, -3100, 7963, 16868, 8727, 27125, 209, 11097, 15229, 21246, 38156, 3146, 3944, -13979, -3950, -1945, -3354, 13466, -11947, -10944, -9518, -3270, -1432, 4015, 7383, -4840, 997, 6468, 475, 13451, 981, 4091, -542, 10632, 2848, -3259, -3877, -5840, 8241, 6273, -8132, 11401, 10163, -7060, -13816, 17319, 13967, 8293, 15056, -2351, -5171, 8527, 10212, 6202, -7577, -12414, 12506, 16414, 10911, -6869, -15933, -3593, 6484, 4780, 13240, 3442, 8968, -3680, -13072, -15547, -6945, 10446, 18176, -15374, -17378, -17530, -12822, -5473, -16824, -5297, -22150, -2527, 3857, -8519, -2431, -10154, 4406, -13524, -25639, -31366, -13245, -14980, -7130, -23195, -21137, 848, -3017, -23545, -14982, -12613, -10385, -6405, -13250, -1722, -1564, -2008, -16078, -13865, 4964, -8715, -8098, -14404, -11395, 3572, 5791, -14512, -10658, -8881, -4009, -11003, -23750, -9714, -10362, -9629, -5886, -18879, -5528, -2835, 13343, -13109, -21376, 2861, 9680, 15363, 16547, 1491, -27, 14761, -2732, -5544, -11919, -18641, 5020, 1941, -21517, -4001, -10160, -1753, -4907, -5274, -12541, -23810, -26351, -6226, -4627, 685, -21780, -248, -4671, -18126, -9537, 6101, -8104, 11936, 15301, 26867, -6055, 1756, 8841, 11660, 7903, 8485, -3381, -4064, -12808, 6129, -158, 2568, -32086, -7622, -5081, 11058, -2589, -24305, -15258, 3448, 18600, -5395, 11824, 1804, 16706, 12805, 27956, 18399, 19273, 4396, 10583, 29065, 10603, 4532, 4220, 26926, 16220, -3190, 1539, 14161, -5263, 4968, -18253, -7578, -1387, 9075, 2336, 2420, 2085, 5241, -6801, 18239, 3336, 9570, 10082, -1535, 29590, -1054, 25225, 7430, 3838, 16372, -14162, -13197, -3873, 9761, 4794, -20400, -19237, -15702], [14541, -3647, 5603, 11204, 2570, -3100, 11154, -11445, 7546, 2384, 9732, 392, 276, 1080, 9708, -12402, 4280, -6361, -3384, -1605, 3200, -13992, -16123, -23538, -12400, 14347, 16845, 1882, 14852, -15163, 4990, -5026, 1050, 9700, -17867, 6889, -16051, 6127, 5179, -19343, -6899, -6517, -19639, 463, -20389, -19717, -4636, -14701, -8727, -8515, -11230, 4809, -7493, -6101, -19453, -6999, -18338, -9107, -19742, -7663, 11512, -20768, -25428, -680, 655, 21105, 16642, 4114, 12179, 12718, 20344, 17031, 21143, -2542, 11482, 18269, 31391, 3319, 18233, 30510, -1100, 8283, -210, -7614, 3166, 1388, 9495, -1795, -15063, 15742, -19473, -6156, -677, -17435, 1861, -21296, -20827, -27576, -19912, -32460, 24407, 23177, 10096, 16900, 35047, 16651, 7841, 6798, 13322, 17378, 7707, 17815, 8905, 7597, -5126, 6418, 8921, 5616, 5294, -9278, -3089, -6805, -22482, -32072, -22718, 15482, 6485, -13903, 14955, 22864, -8068, 18133, 2939, -3279, -4193, 9613, 7915, -6996, -6994, 1299, 16196, 13555, 14477, -4999, 8658, -8828, -3293, -13022, 1267, -13575, -9767, 7825, 409, -3860, 670, -23476, 5123, 7669, -5023, -20895, -2550, -7231, 2592, -19143, -11276, -18055, -31720, -24089, -31455, -16847, -24205, -31370, -32572, -30251, -16075, -19526, 8379, -14149, 1707, -11164, 2539, -3433, 8191, 5283, -8908, 3358, -6262, 4331, 5712, -760, -10641, 8794, -10204, 8950, -12692, 2124, -16073, -550, -10659, -21936, 7199, 5427, 13960, -9259, 24549, -127, 8303, 892, -837, 4421, -14845, -5548, -7742, -16968, -8868, -23484, -14801, -8847, -1302, 10801, -25240, -12005, 8590, -10308, -16119, -1537, 11295, 3184, -6956, 3928, -8117, 3505, 10379, 6520, -6175, -9501, 3123, 14587, -6828, 4761, -6198, -19326, -12797, -8354, -20231, -22432, -18180, -16026, -10641, -9104, -970, -13119, -3087, -15629, -14220, 4664, -4618, 16803, -3441, -1074, -13065, -4554, 4914, -4503, -860, -2500, 10949, -4413, 10754, 7693, 12356, 4127, 17859, 10207, 16195, 11777, 454, 4143, 4388, 18316, 17293, 21009, -1456, 11312, 15933, 10048, 10958, 12696, -7486, 7572, -5744, 10142, 15636, 11633, 6638, -6729, -2023, -1435, -470, -7345, 16147, 3891, -9186, -12612, 16617, 9882, -10398, -7634, -3790, 3800, 4396, -6346, 4634, 3622, -3410, -2128, 4858, 4686, 3851, 4157, 9159, 11704, 9765, 9411, 17459, -9226, 6555, 4985, 2721, -3234, -1811, -2051, -2241, 6677, 13757, 2640, 240, 2807, 18641, 5749, 2165, -4964, 5105, 7282, 13770, -19873, -24579, -3689, -15253, 15056, -7830, -4851, -1162, 8830, -10571, 3136, 16730, 2963, 18047, 21331, -1563, 8430, -9018, 18484, 15224, -1894, -683, -2380, -6260, 23065, 16170, 7591, -2955, -5765, 13613, -14867, -10707, -3965, 10805, 6459, -7761, 4959, -5792, 10199, -5616, -14642, -14755, -7674, 13731, -7258, -5920, 8527, 9320, 12143, -4963, -18182, -209, 15367, 12088, -4827], [7031, 1592, 12422, 10703, -7760, 66, -1490, 1641, -7377, -4004, 3781, -7124, 7821, 10412, 10412, 896, -10621, 3531, -3851, 763, -7015, 5274, 12524, 6442, -10399, 434, 9071, -2416, -10539, -12437, 5559, -3792, 8665, -7670, -13713, -4596, 1342, 3846, -11555, 7492, 5347, -2406, -5647, 714, -6754, -5450, 8432, 4849, -14249, -6137, 3822, 2084, 12804, -3068, -9706, 1658, 985, 13520, -1243, -4824, -6514, -5455, -12002, -2498, -12756, -13995, 9383, 8060, 7965, 739, -969, 3395, 7634, 13299, -6192, 11777, 11062, 3651, -2592, -16406, -1462, 13671, 6119, 7396, -18190, 2190, 263, -6460, -13723, -1911, 10354, 12042, -14790, -17124, -3691, 3068, 9859, 2026, 5887, 1896, 564, 4433, 8460, -4003, 2291, 11258, 3800, 1402, -8373, -8794, 14860, 8365, 8943, -8559, 3389, 11403, -10624, -5468, -12272, 6718, -13931, 11296, -12892, 7384, -5401, 6769, 2359, -5271, 2585, 6944, -698, -4552, -3100, -462, -7170, 6412, 1954, -5422, -944, -6816, 6555, 10950, -10740, -6157, -12263, 1439, -1424, -14020, -15761, -2969, -6563, 11323, -3336, -9424, 4428, -10196, 4658, 4665, -5113, 1527, 9278, 817, -6935, 9795, -1952, 8830, -9882, 77, -6824, -3572, 8113, 200, 2694, 1575, -2587, -12012, 11021, -3779, 5788, -7385, -4753, -1213, 8856, 12880, -139, -5166, -2978, 10796, -1287, -7368, -8136, 11200, -5389, 5773, -3711, 6386, 1966, -13661, 1747, 9393, -5817, -10518, -5904, 10576, 974, 12237, -2211, -9193, 6499, -9706, 7673, 3743, -12960, -13310, 4238, -2998, 1459, 12382, -12090, -10575, -7279, -7939, 9359, 6677, 3878, -10925, -658, -8554, 4524, 10681, 7979, 2485, -26, 8572, 4932, 1854, 8929, -12960, 589, -8556, 11954, -5929, 4609, -11249, -9305, 9483, 10089, -12025, -12237, -13898, 1052, 1653, 12076, -9682, 12702, 5871, -5126, -7528, -6980, 6751, -1128, 6261, 7637, 9454, -7514, -8515, 5285, 8652, -4305, -3839, -3934, 2386, -12422, -13334, -3643, -3470, 11888, -13298, 2378, -16621, 2037, -2298, 9180, -12500, 4529, 10800, 4070, -11741, -13561, -15127, -6402, 9998, -5963, -4780, 10577, 6730, 3319, -6495, 6759, 13055, -2184, -8106, -4540, 3429, -3782, 4122, -7411, -12141, 160, -9097, 8089, -2831, 1880, 11121, 9309, 16196, 12325, 11083, -10392, 130, -8598, -7450, -14227, 9688, 8919, -9118, 3267, 8606, 8011, -8867, 1486, 2527, 8498, 2917, -4908, -4276, 10302, 6562, 7935, -6227, 8978, 3886, 340, 7546, -3918, 5111, -6492, 9684, -5662, 4695, -9999, -2727, -907, 13640, 8536, -15379, -4884, 10317, -8971, -3932, -1864, 6545, -4480, 14542, 9459, -7451, -6289, 1414, 8499, -6323, 8537, 8425, -4593, 95, -6260, -7140, -5344, 6082, -3848, 10271, 1934, -10749, -4818, 3156, -633, -7304, -13841, 3088, 13625, -9558, 9150, -11539, -8217, -7717, -1896, 5868, -6753, 7821, -7226, -366], [3178, -5126, 9194, -10113, 6469, -16401, -15504, 366, 788, 2533, -7848, -13144, 9428, 3459, -11679, 3499, 11389, 5597, 6637, -9952, 5322, -4182, 3069, -7254, -12244, 497, -8689, 698, -5340, 2740, -9269, -19224, -12543, -6716, -13003, 8890, 3510, 1436, 2371, -4215, 6339, -14900, 2723, 3839, -1209, 1175, -1282, -6843, -717, 11785, -13499, 3544, 4733, -120, -8629, 7844, 4930, 17203, 4844, -4156, 13864, 22275, 23730, 4995, 1228, -1084, 16821, -1634, -81, 7764, 3480, -12823, 8475, -5428, 7598, 20957, -6654, -10738, -11095, -1942, -5084, -7722, 3609, -2347, -3391, -7114, -303, -781, -14170, -20748, -1007, 6221, -2042, 2131, 1160, 11771, 4756, 10790, 1543, 2928, -8073, -7783, -1127, 12483, 25042, 14844, 14994, -14194, -11056, -9890, 10621, 8397, -1197, 1911, -9221, -3851, -2079, -5078, -15588, 1734, -3590, 5178, -320, -3538, -2033, 22349, 11674, -14935, -9247, -1659, 3765, -6140, -1847, -3270, 14818, 10953, -10240, -9169, -4952, 20598, -10470, 2046, -16971, -18939, -2771, 18661, 1876, 2430, 6576, -14959, 3700, -9661, 12, -14669, -5018, -2217, -149, -19170, -12080, -11076, 5900, -15738, -23044, -14755, 5302, -7075, 4940, 4926, 5313, 9787, 17879, 13422, 18133, 20951, 18515, -5465, -267, 5199, 11737, -13603, -8522, 5533, 10737, -2846, 6700, 4144, -4324, -3245, 8135, 13906, 11872, -6416, 9979, 4397, -9779, -8696, 14217, 10451, 17095, -12612, 9118, 2718, 8920, 19383, 9172, -1580, 2723, -9785, 409, -11655, -6454, -7896, -9400, 2029, 4202, -7659, 3184, 7018, -6261, -16156, 4723, -4833, -11632, -7224, -4990, 6620, 2303, 5215, 11555, -3180, 808, -19654, -13693, -13944, -6954, -6790, -7689, -2633, -9683, 9882, 8006, -1882, -13026, -16215, 4372, 33563, 2773, -1264, -12005, -17908, 4752, 7501, 9378, -4872, -15462, -4842, -7633, -7210, 6331, 8356, 4109, 11151, -3545, 20761, -2890, 16324, 1501, -1568, 8020, 9927, -6760, 12986, 9660, 3781, 5466, -12006, 4571, -13244, -4772, -14372, -299, 11153, -4352, 9399, 8610, 4025, -795, -10885, -13497, -4453, 6528, -10687, -12938, -9650, -8892, 4076, 896, -9200, 1101, -8372, -1037, 19261, 12095, -6032, 7142, 10604, 18244, 11382, 2320, -11173, -5474, 9763, 13147, -10059, 5942, 386, 0, 1047, -1106, 1418, -8118, -1293, -14659, 3953, -16702, -13057, 15223, 11159, 13779, -15485, -10, -10120, 7128, -5462, -16911, 3615, -1434, 5432, 14139, 3009, -11193, -16095, 3524, 5662, 9122, -17027, 5006, 20544, 6284, 3849, 8734, 691, -5410, -16190, -17166, -5739, -5744, 1163, 6485, -1104, -12482, 5630, 9438, 14371, -1186, -3218, 8861, 2235, -3148, -8235, 5123, 3810, 3217, 7440, -16948, 9336, 2291, 7509, 14756, 24372, -3087, -8471, -8016, 3919, 397, 9196, -12006, -7203, 3113, 6129, -14324, -10693, -7037, 5460, -5313, -3739, -8699, -6382, 10752, -1199], [-10567, 2966, -11580, -7336, 1811, -10100, 8245, -7823, -327, 7098, 5052, 17217, -5012, 6695, -355, -11364, 9870, 13126, 11240, 27455, -15878, 2575, -7848, -11887, -3847, -7657, 3158, -7587, 1826, -3164, -9356, 11257, -5756, -9811, 7642, -174, -9601, 14090, -11522, 191, -1278, 13041, 5530, -7512, -6179, -2001, 12736, -10086, 10308, -15801, -6637, -47, 11116, 5109, 2033, 9748, -4917, -6661, -74, 8701, 15346, -14054, 2955, 6292, 3537, 1553, 10640, 12671, -5806, -4911, 9045, 16333, -245, -1373, 16707, -6914, 14335, -10650, -1731, -15288, -1525, 6762, -1399, 11681, 11680, 3791, 10830, 7769, 317, 15014, 6767, 16222, 7302, 25319, 15058, 8933, -5203, -322, -5578, 22322, 15010, -1716, 9194, -9637, 2407, 7651, -3495, 9601, 14587, -13147, -7405, -19585, 5524, 1727, -11226, -15377, -5305, -9404, -9285, -9114, 5826, -13811, -8468, -12340, 13986, -4800, 16673, 2337, -3246, -3110, -4374, -9197, -3395, -1699, 21, -10986, -15553, 2054, 13041, -133, 10096, -15675, 1941, -13671, 8091, -17843, -8868, -3917, -17249, -6148, -7339, 545, 4147, 7550, -630, -20081, 1881, 383, -1705, -2888, -10563, -129, -7506, -18819, -23904, -11563, 611, -20752, -7352, -22567, -21121, -14, -18955, -6924, -33700, -1454, -726, 6274, -14601, 6198, -6293, -8237, -1039, -5156, -328, 9533, 10990, -4375, -20427, -14762, 18934, -2341, 2479, 8935, 7015, -4735, -8681, 9135, 19392, 11013, -3836, 1874, 13164, -9370, -17834, -12452, 7582, 2747, 2059, -14789, -11805, -17310, 11185, 11991, -3359, 237, -17142, -6633, 2807, 15783, -14951, -12065, -1359, -11340, 9665, 6178, 4065, -12726, -7701, -23572, -13232, -9714, 8710, 8976, -9171, -38345, 8280, 17277, 14480, 13361, -27192, -21748, -5593, -14182, 22240, -31634, -13880, -16169, -23488, -2077, -14463, -11120, 2461, -8604, 11502, -8900, -18067, 12248, -5151, 11486, -14607, -16164, -14066, 12573, 11967, -7895, -14542, -15177, -11190, 12923, 6844, 3067, -2489, 8071, 10698, -6218, -7300, 9197, 16306, 16878, 5717, -9543, -3369, 138, 33808, 5379, -16518, -14613, -9377, 8591, 13597, -5551, -5283, -1788, 393, 7622, -17377, 4154, -3516, 12031, 3412, 3724, 5523, 11785, 13193, 1660, 3843, 6888, 16328, 25830, -4481, -7138, 4170, 5217, 12428, -5398, 1189, -1372, -9544, -2843, -419, 10762, -377, -9655, -4578, -8037, -126, -9319, -11416, 1508, 445, -280, -7686, -15759, -12766, 7831, 19094, 15227, -24421, -5517, -1432, -283, 23310, 3553, -16260, 3313, 14320, 16193, 29962, 37198, 13548, 9000, -13545, -12330, -3926, 2217, 12332, 5480, -18511, -7967, 11729, 23979, 2624, -7698, 5908, -5909, 10277, 18975, -2031, 31270, -1067, -6902, 5908, 10110, 28536, -7718, 1376, 1311, 2443, -12767, -4910, -3342, 19778, 1276, -11616, -3853, 12094, 16886, 7163, -24155, -18063, 5915, 14423, -961, -15039, -14127, 20190, 21746, 10430, -2052], [599, 7566, 6599, -9404, 9878, 5138, -13012, 6394, -4862, -13349, 6703, 231, -4246, -9982, -390, -11550, 136, 10281, -3150, 11597, -1505, -6378, -7347, 1024, 2309, -5854, 5077, -11630, -10349, -2351, 3661, -960, -5835, -3747, -7034, -13764, 2852, 5795, -14053, 2155, 9847, 3304, -4800, -7585, -12624, -2483, 6158, -79, -3464, -8064, -3734, -11912, -3853, -10710, -2034, -956, -9456, 2272, -4333, -3019, 4250, -11799, -6526, -2651, 1024, 11449, 1245, -7193, -100, -8450, -12866, 7868, 9009, -4527, 2066, 3965, -13715, -4409, -3214, 2960, -1826, 7046, -3443, -2656, -7950, 8023, -12272, 9868, -3260, -11026, -14515, 7469, -5961, 756, -13752, -2051, 4602, 6928, 10914, -9011, 4008, 7471, -11268, -7559, 2315, -6011, -8088, 10270, -6525, -10714, 12980, 10337, -705, -10377, -3060, 12718, 1323, 1174, 7050, 5789, -6584, -11036, -13344, 408, -9302, 4010, -3569, 13680, -5083, 472, 95, 8284, -8259, 10894, 4876, -723, -7073, 4208, 3747, 11182, 12429, -7399, -7660, 8852, -1363, 582, 11757, -893, 11798, -5560, 7436, 2779, 10441, 8388, -1158, -7124, -7065, -13752, 1757, 3923, 6262, 8329, -8789, 5073, -1865, 11523, -11148, -4206, -10491, -7326, 4958, 4010, -7133, 7417, 13447, -7133, -5980, 6345, 6901, 5216, -12619, 3168, 626, 8319, 3395, -5578, 6515, 10862, -8813, -5375, -740, 10899, 370, -3421, 9531, -1801, 4746, 7793, 5063, -7810, 4304, 7325, 8620, 12326, -3748, -4961, 9822, -5785, 8094, 10649, -9758, -6880, -15006, 9463, -6416, 2831, 4413, -8309, 10344, 858, 5546, 9023, -1638, 9343, 9718, 5080, -7465, 7188, 6634, 10948, 14230, 7848, 11772, -683, -405, -10021, 8148, 1851, -13439, -3593, 9939, 4040, -2250, 9615, 4671, 2935, 3023, -10780, 6112, -9973, -1331, 14282, 4126, 598, 10199, 8348, -4588, -6276, -4735, 3961, -946, -7710, 2472, -10333, 7759, -5351, 11493, -5610, -9671, -4536, 4431, 6917, -2532, 3363, -10224, -7690, -3525, -13487, 582, 3592, 7417, -8085, -8753, 5964, -9195, -6827, -7027, 9736, 862, -7180, -8761, -14010, 1003, 9336, 11210, -13485, -6843, -3213, -7948, -11025, -7418, -4414, -2117, 126, 11662, -10144, -8780, 2895, -8619, -8499, -12709, -1993, -968, -3183, -11127, 5627, -1497, -12006, 3771, -8874, -7991, -5262, -9253, -10919, 486, 9890, -11243, -13851, 1757, -216, -7859, 7317, -3785, 12034, -11372, -9465, 3164, -3037, 4069, 849, 5823, 10139, -2764, -10863, -10208, -13810, 7776, -14002, -13415, 8138, -8765, -350, 2465, 13507, 4704, 1665, 544, -10590, -11330, 12248, 1375, -4961, 6290, -5087, -5938, -2292, 5898, -14971, -8276, 1749, -4034, 10774, 2031, 8575, -7217, -5073, 4368, 8407, 3507, -10427, 4068, -10269, -12247, -8727, 8267, 1970, -4841, -7155, -4252, -3568, -8928, -4277, -6804, 2023, 9112, 1971, 8663, 1450, 10035, -8003], [6642, -6191, 5681, -8012, -516, 8181, 6705, 11249, 2064, 7801, 5576, -4687, -4849, -10522, 7493, 5933, 4208, -207, -22077, 6489, 3621, 7050, -8708, -2846, 7643, 2861, -1982, 14518, -7114, -10967, 8906, -8934, -9685, -10812, -13501, 2121, 2044, -17789, -15851, 4352, 3346, -4729, -9485, 17486, 28647, 14408, 1551, -691, 1206, 9604, -16088, -640, 1110, -9110, 4263, 1839, -792, 3191, -5399, -6639, -25657, -2840, -7184, 4659, -140, -11443, 8043, 7665, 5474, -18761, -12303, -25193, -5685, -22486, -26286, 23415, 9483, 22122, 22900, -406, 7169, 1974, -17803, 7291, -3688, 2149, -17086, -17235, -11881, -12768, 2518, -20991, -13227, -4561, 12577, -6859, 966, 6355, 5959, -5305, 12840, 13281, -2117, 9859, 7848, -11864, 6558, 6351, 13888, -5949, -21770, -6019, -93, 6428, -5385, -402, 1731, 19764, 14432, -3851, -4098, 3359, 7321, 2120, 1824, 9147, 4218, 10680, 8046, -9378, -4574, -2252, -5584, 13996, 6342, -341, 4947, 7085, 4346, 1707, 1719, -13444, 9717, -3540, -19610, -8639, -1757, -7166, 1781, -9074, -5460, -856, -5724, 662, -24246, -277, -24554, -11090, -16272, -22770, -5829, -604, -3988, -4757, 13486, -10391, 3965, 10211, 10570, 13824, -7971, -10766, -11293, 14832, 18193, 4160, 911, -2196, 12616, 10141, 17958, -939, 10524, 14127, 2258, -3353, -582, -4555, 12389, -12479, 10410, 2881, 1701, -6732, -10581, 14708, -6002, -12850, 12775, 3335, 4794, 15701, 1337, -249, 1649, 20735, 5121, -11644, -20115, -12425, -3736, -9120, 8916, -14135, -19210, -6463, 10441, -6610, -14614, 9977, 7584, -1199, -3154, 5308, -7957, -12077, -11034, 7159, 9036, 3172, -5975, 13443, -1027, 4017, 7009, 5545, 5252, 3494, -9555, 2475, 16810, -1499, -718, -18003, -3501, 28694, 10358, -16261, 15832, 7484, -5364, -3316, -6100, -9326, 2198, 15393, 5918, 15911, -4705, 4468, 2864, 13713, 10488, 9834, 9956, -2972, 2613, 612, -1035, 15505, -18604, 6232, -398, -12886, 13593, -2180, 11481, -3391, -11188, -3607, -1376, -14709, -11234, -5025, 489, -11038, 6312, 13080, -1059, -6701, 547, 18283, 14051, 4745, 7354, 9151, 25712, 26023, 9085, 20145, -10035, -2665, -2257, -3201, -4348, 7700, -13284, 3072, -7181, -4875, -10417, -14809, -1468, 9581, -6175, 8303, -4868, 11706, -11526, -16584, -11284, 6707, -7461, -9696, -7538, -23400, -16033, 5954, 9083, 4063, -18777, 3245, -9632, 4506, 9035, -14791, 1206, 575, 17730, 2718, 4961, -5814, -10029, -3959, 2285, -5642, -19707, -20801, -23598, -12912, -33070, -12177, -2120, 505, 7683, -13458, 1150, 16168, 18194, -4017, 7529, 10855, 16487, 13622, 2819, 12970, 22249, 5265, 4010, -6661, 12072, 8020, -15515, 1839, -16926, 1601, 16945, -3947, -10354, -2193, 11013, 5498, 12634, 9386, -2730, 14079, 10790, 7512, 13412, -6386, -1512, -3335, -20563, -5169, 1372, -4346, -18182, -11654, -18661, -8562], [-6833, -7593, -1426, 10238, -1539, 10045, -8470, 4162, -8385, 12063, 8882, -8712, 6939, 888, 8653, -13377, -3985, -10362, -3433, 14798, -2301, -11029, -5109, -2209, -1730, 3018, 17156, 29281, 11016, 18621, 263, 14449, 1417, 19009, 18187, -8477, -7062, 9550, 8013, 10395, -14537, -6403, -8329, 5950, -5293, 11714, 1530, 2909, 3440, -13335, -10587, 7516, 1836, -8687, 8606, 11265, -7565, 10647, -8915, -9098, 10258, 2295, -3687, 2564, 8552, 8626, 3615, 9329, -9902, -11624, -7090, 15143, 10944, -9031, -2074, 19139, 7196, -7043, 9254, -987, -5891, 6461, -15740, -18683, 7157, -17788, -12850, -14851, -10238, -6579, 3230, -3843, 3230, 9477, 16231, -6078, -10173, 10781, -3052, 2002, 1717, -124, 6521, 11613, -960, 4180, -19153, -12685, -3775, -8192, -9321, -1008, -6394, -1789, -7346, 1210, -4652, 11063, -4356, 6664, -4819, -3721, 5752, -3534, 12261, -10064, 7017, -12847, -12752, -8696, 14220, 14342, -15009, -8867, -11662, 5019, 4867, 11685, 7658, 16454, 3830, 9175, 461, -6875, 6570, -1132, -10286, -2034, -14054, -1832, -7322, -13346, 6471, 18907, 11837, 9570, -12476, -2215, 3065, 3395, 12385, 14170, 7771, -8991, 5082, 13107, 1156, -7567, -3345, 13015, 9547, 13363, -4275, -11034, 2887, -746, -12102, 2952, -3846, -1152, 6369, -12572, -13535, -5445, 10856, -9681, 3786, -4350, -6852, -13216, -6835, 14858, -7109, 2933, 15084, -8663, 9781, 4515, -5478, 4253, -13238, 3578, -10541, 10072, -2461, -14273, -9033, 11900, -7962, 3305, -9548, -7703, 8751, 6558, 5248, -3875, 7648, 3801, 1240, 4009, -1421, -7384, 11350, 10976, 1334, -3252, 19346, 3229, -14991, -15182, -7171, -9840, -466, -15436, -13075, 11413, -435, -13482, -9684, 1813, -10805, -10395, -15185, -5203, -2009, -13174, -5973, -4819, -1694, -4253, -13322, -12885, -1033, -17795, -4530, 15550, 1571, -5770, -11301, -14063, -4832, 3174, 10650, 21630, 3937, 8376, 8475, 11213, 11448, -4548, 1548, -3996, 1171, -5590, -8913, -13679, -3604, 5393, 17250, 11610, -1566, -14416, -6295, 14682, 4411, 5141, 6480, -5436, 6681, 2748, 10861, -7103, 3259, 2638, 17031, -8347, -7765, -11751, 12998, -990, 5841, -380, -3592, -10313, 8419, 339, 6695, 9584, 3518, 6116, -8561, 14747, 3527, 10808, -4397, 6428, -3432, 15185, -2823, -1881, -6024, 1038, 10575, -2362, -13150, -9535, -831, 2280, -9329, -7250, -11209, -13445, -4343, 10067, -18594, -9644, -4129, -18384, 6009, -696, -6596, 6513, 4337, -12750, -8746, -15215, 6439, 4681, 2894, 14699, 18379, -13094, 435, -7595, -9267, 9389, -5519, 5200, 5231, -5416, -3967, 3104, -11334, -4101, -15649, 4335, 7042, 6864, -9682, -9053, -11411, -2931, -1810, 13243, 11259, -16077, -5083, 1620, -3674, 2468, -5509, 20662, 693, 1339, 12415, -7457, 2921, -3317, 11884, -3947, -17224, -1247, 696, 3035, -9161, -8856, -9735, 2156, -1208, -9228], [-24788, -5396, 688, 3783, -5697, 11023, 1693, -16101, -9646, -15236, -8903, -4040, -12704, 8229, -6798, 7958, 11042, 8295, 11550, 7122, -10680, -6417, -6539, 6022, 212, -19968, -15435, -19181, 5079, 5651, -6794, 8290, 5178, 4723, -14023, -10091, 6215, 1735, 2688, 1472, -15158, -13817, 2676, -2336, -4778, -21208, -16599, -8787, -9925, -12804, -91, -1852, 17637, 21018, 17236, -5984, 9640, 1815, 7515, 15049, 8655, 20454, 18825, -8528, 1800, 1083, -5823, -7095, 11089, 3566, 12230, 15652, 3450, 14750, 37682, -7018, 3958, -9039, -5946, -5389, 4406, 9471, 21231, 8006, 3193, -1702, 24531, 20632, 15330, 11891, 4164, 12221, 8498, -3428, -8269, 4818, 3827, -6406, -17774, -5861, -25478, -28674, -22126, -37887, -32877, -8877, -14629, -20243, -31334, -22690, -843, -2403, 424, -15348, 1126, 7708, 9486, -18658, -13144, 8197, 14295, 11460, 12723, 12558, 15911, -5330, -18582, -17160, -11624, -22236, 2356, 1089, 8449, 4564, 8898, -8475, 14327, 8250, 2707, -2844, 26318, 28604, 13119, 17539, 367, -1663, 2922, 10588, 5058, -13490, -34547, -20962, -10148, -17867, -9491, -193, -7427, -6891, 1149, 26226, -7478, 9276, 10428, 18608, 10734, -8942, -12166, 8317, 17403, -218, -21061, -25639, -12223, -27176, -20754, -6130, -8630, -1135, -1997, -8416, -14519, -8497, -11556, -13600, 5410, 3201, -77, 16178, -11190, -13760, 13357, 7098, -9170, -3897, 6260, 10379, -3816, 3731, -10278, 7317, -24391, -9024, -2462, -15945, -26543, -2633, -18483, -5103, -19157, -15378, 1383, 13078, -8414, -1035, -8694, -493, 17727, 4690, 6969, 14584, -11333, -8498, -11243, 1449, -11387, 2888, -17815, -24770, -19611, -16541, 15829, 726, -28771, -15775, -3554, 27267, 22276, 11099, -2144, 8444, 32211, 22683, 39218, 24686, 8688, -8830, -862, 20233, 19038, 10623, -8355, -2586, 6953, 5106, -11341, -10781, -6721, -10000, 6161, -16787, -2142, -3620, 7821, -2206, -1433, 3844, -1999, 7664, 421, 2004, -5455, -15959, -956, 9709, -19616, -3525, 5075, 8634, 8638, 9212, -3444, 8648, 10642, 8070, -3413, 6354, 24577, 28074, 21234, 14251, 18365, 2541, -4398, -15156, 8779, -10932, -22308, -15570, -12184, -13469, -1461, -3879, -12563, 6150, -20349, -862, 6289, 3839, -4388, -8578, -14240, -10346, -8519, -17622, -9176, -5885, -6100, -6572, -467, 3498, 10655, -3690, -9000, 8776, 19819, -5487, -7078, -5805, -3886, 3157, 12002, -3201, 17811, 9443, -707, 759, -4259, 489, 14755, 14690, 6475, -2910, -11801, 4969, 2134, 3425, 11053, 22943, -10356, -1013, 1707, 9269, 44, -15422, -5076, -10430, -13434, -9949, 6607, -12702, -18419, -3163, -6888, -14299, -11214, 982, -2985, -3719, 10817, 1983, 2013, -4912, 7437, 4084, 24713, 5687, -11161, -23517, -6582, -19119, -4823, -8847, -18620, -26250, -25904, 13039, -11348, -25523, -17437, -8815, -230, 17128, 7086, 3063, 13020, -2793, -7613, 811, 12962, 16467], [6847, -6410, 4434, -6181, 10405, 8357, 2798, 1975, 15905, 11461, 9241, 6662, -2412, -12852, 3853, -2922, -7782, 10116, 10960, 1642, 7595, -5854, -8189, -7670, 12104, 12573, -1525, 8166, 21989, 8407, 9686, 6225, 5775, 4640, 8377, 10546, 17742, -3201, -13192, 4631, 1665, 13485, 10145, -373, 5424, -6074, 17160, -1460, 2870, 17027, 4603, 1907, -8322, -1491, 3778, -1962, -10361, 3395, 9406, 11633, 4033, -7937, -11994, -5832, -14245, -16643, -13723, -23139, -11935, -15915, -14054, -14115, -5456, 4304, -3073, 1664, 1895, 398, 4221, -6307, -18041, -14059, 5987, 12736, 17884, 1704, 5341, 4748, 13894, -9698, -4249, 7795, 1207, 971, -7781, 5629, 17977, -58, 9560, 17208, -1509, 1741, -17702, -16238, -17277, -7843, 7112, 3587, -3824, 9424, 18581, 19403, 9482, 5129, 12885, 19153, 371, -12338, 7554, 249, 22456, 13056, 7368, 11833, 13768, 6787, -8787, -11778, -2638, -3692, 9690, -12903, -853, 970, -2060, 5579, -3072, -8834, -2423, -5072, -4512, 3745, -11209, 2153, 11242, 6057, -9284, -1543, -1850, -1672, -11378, 6970, -4748, 10712, 13750, 8576, 13482, 7317, 7677, 7848, -10531, -3798, -10522, 11911, -80, 3322, -11054, 686, -13519, -3895, 2507, 16470, 18389, -3646, -7408, 6505, -1771, 5321, -3589, -6182, -13529, -10959, -11850, 2776, 2708, 388, -1278, -21206, -353, 15421, 14684, -17363, -15815, -11390, 7643, 6386, -11368, -8164, 2044, -7584, 1631, 1567, -12537, -18086, -8287, 11249, 15262, -2809, 5542, 4443, 20949, -61, 10510, -3251, 8005, -1964, -1552, -4436, 11130, -8932, 5361, 1152, -15051, 1290, -1523, 5805, 18265, -7088, 2739, -7420, -3716, -3786, -12713, 8864, -2375, -10926, 3364, 5831, -9050, -10568, -14905, 7945, -5715, 9494, 20670, 2001, -5387, -6347, -4496, 2376, -1591, 6233, -2236, 2328, 4344, 11409, 680, -8438, 15560, -1315, 5627, -9763, 6908, -4811, 2539, 2635, -4139, 782, -12242, -568, 10781, -2128, 871, 8567, -7452, -12921, 2466, -2840, 12709, 10800, -10888, -4359, 8234, -4497, -8004, 746, -10960, -10202, -650, -5324, 3630, -15947, -8160, 4331, -11421, -5281, -11782, -12575, -16919, -1694, 1431, 6372, -14525, 6201, 1805, 6451, -7352, 6587, 8080, -15871, -10985, 1532, -29, 8431, -4734, 7568, -7368, -77, -150, -13759, 2540, -1002, 5026, 8403, 3373, 17770, 13138, 9138, -4667, -206, -7534, 8173, -13624, -10532, -14692, -16527, 12562, 280, -21556, 6600, -1778, 18298, 12726, -15483, 8522, 5527, 19446, 19672, 8416, 15425, 15941, 23059, -9701, -12646, -13771, -5590, -4647, -9774, -13486, -11372, -6716, -4227, -6820, -18379, -12328, -14561, -17553, 4559, -16872, 4301, 1968, 9073, -8956, -9577, 9802, -5749, -959, 19535, 1854, 2470, 13192, -14404, 5882, -6438, -152, 16067, -15787, 14936, -376, -11614, 8709, -10043, 17908, 672, -7288, 6944, -5154, 20705, 10167, 150], [-10202, 1250, -6587, 10365, -3525, 682, 10933, -9478, 6418, 5697, 329, 6916, -7349, 8296, 1825, -6367, -5975, -6803, 7381, 7466, -1367, 13309, -8441, -7048, -11938, -8064, -4688, -8812, 14297, 14450, -2062, -9753, 118, -7715, -11495, 684, -9434, -7712, 2216, -4259, 9910, -128, -11049, -6504, -9719, -4396, 16338, -124, 8920, 2855, -10687, 9042, -4901, 5601, -2304, -5538, -1395, 11453, -456, -2259, 7879, 16298, 14897, 5032, -9126, 6942, 8704, 3975, -4294, -5803, -8467, -12542, -15182, -540, -19222, 3445, -8358, -9760, 4797, -508, 12024, -3575, 1954, 4811, 2712, 1831, 13087, 11633, 927, 1154, 6569, -6051, 13304, -2397, 10901, -5391, 9197, -1410, 2551, 9241, 5336, 7255, 13512, 7907, -7850, 17099, 6256, -1718, 11118, -1875, 18100, -5516, -7932, 3472, 20021, -1607, -1788, -6646, -2593, 15986, 14498, -951, -16328, -11982, 12891, 12344, 14470, 4094, 11032, -7722, -3691, -10033, -1354, 15342, -1204, 2234, 4925, -3372, 4749, -12886, 2114, 6687, -7232, 2827, 5027, 492, 9596, 15733, 1893, -6973, -3548, 4734, 7424, -4425, 16528, 3552, -15552, 14311, 6718, 10840, 4407, -8385, 18179, 18414, 918, 6318, 621, 1506, -6884, -17755, 30732, 13317, -2100, 5775, 20294, -38, -5231, -9685, -467, -6023, -14286, -933, -12433, -8878, 8489, 8464, 5237, -11651, 5366, 10539, -7105, -17256, 3480, -4899, -1327, -4877, -4102, 2204, 16407, 10589, 3886, -6571, -13255, 6453, 6394, -9689, -11269, 1372, -3325, -2494, 8752, 593, -4731, 15824, 20038, 7218, 571, 7411, -5314, 496, -10961, 8779, -6203, 2679, 16815, 6654, 6443, 5897, -7400, -6743, 6556, -8993, -3317, 268, -5039, 6772, -445, -10899, -6572, 3997, -2102, -17017, 6757, -16848, -1195, -1775, -6031, -9475, -10589, 9856, 831, 9790, -14390, 14342, 300, -14235, 66, 4640, 13855, -8186, -6095, -47, 4276, -1411, -4537, 1534, -11243, 5986, 7465, -15579, -1383, -14864, -7197, -2425, -6899, 4754, 14919, 5501, 765, -4686, -7575, -1372, 4907, 3425, 13074, -14560, -15781, 7184, -7426, -4743, 5090, -3270, -10133, 561, -3957, -12558, -9609, 4626, -3273, -4431, 9835, 11576, 19325, -2321, 5028, 8, -3195, -1524, 12297, -3948, -7288, -8900, 7376, 9985, 5185, -6804, -503, -5512, -1699, 6578, 2007, 1922, -14479, -10646, -450, -4974, -521, 9962, -2500, 10293, -214, -5410, -10206, -6842, 304, -9946, -1622, 1709, -11965, -2028, -23194, -17311, -4028, -7662, -7559, 9118, 3461, 11113, 2778, 6248, 10112, -1393, -424, -647, -1581, -12147, -4087, -218, -13263, -10704, -17813, -8426, 6869, -15638, -6115, -15275, 525, 3677, 7915, -4944, 14350, 13958, -4861, 3371, 1105, -23500, 614, -10450, 1350, 9768, 3049, -2399, -3924, -22540, -8956, -6834, -18660, -16067, -14409, -9241, 870, -13977, -1182, 10342, 16284, -3288, 2925, -229, 9122, -14006], [15201, 4084, -4520, 12165, 5931, 6853, 11096, 15351, -6649, -9822, -2441, 431, -13810, -2466, -11679, -5711, -12756, -11887, 65, 5522, -16549, -12311, -323, 825, -3968, -11404, -24511, -24917, -25019, 5678, -9670, -22163, -17191, -14538, 1672, -25613, -2897, -3830, -14902, -5034, -19911, -5996, -8583, 2883, -11397, 6347, 5366, -12155, 4123, 10786, 1121, 460, -14540, -70, 14229, -11194, -590, -10396, -8634, -10474, -5012, -20637, 1060, -24044, -8917, -17239, 3549, -12714, -2922, 5533, -4129, 2346, -12068, -2925, 14007, -20186, -21464, -2433, -16146, -28064, -10299, -12584, 13947, -15269, -16235, -1468, -1637, 16455, 11587, -17422, -21538, 5231, 15982, 14091, -15376, -6316, 4057, 12054, 4079, -710, -4934, 21405, 3295, 8812, 10369, 14247, -2714, -3834, 10027, 768, 6801, 15828, -9459, -8195, 13264, 15604, 15193, -5280, 410, 6641, -5003, -10509, 2148, -12329, -14207, -14286, 18579, 21919, 18433, -5902, -8116, -5089, 13578, -7491, 318, 1796, 12199, -4902, 7186, 9478, 19039, 17509, -20, 6618, 4989, -5319, -3299, -7287, 3473, -4438, 9830, 8217, 4396, -11066, 4780, -3958, 6899, -6946, 24956, 26547, -613, 8466, 12593, 3694, 17470, 4348, -11609, -7904, 890, 10826, -20357, 13924, 19723, 10908, 6394, -5058, -11850, 3180, 21826, 25202, 93, -4360, -10811, 14120, 22346, 5467, 215, -13274, 844, 10352, 6947, -17415, -17202, -7628, -3425, 4673, -11317, -21999, -9976, -3827, -2412, 7153, 15132, 7235, 9558, 15229, 5844, 9858, 17100, 13581, -3076, 11821, 2356, 12365, 7528, -785, -6916, 8417, -444, 3081, -12471, -12516, 1104, 1575, -840, -7101, -5795, 3117, 14294, 20984, 15048, 3778, -6523, 11129, -4865, 16832, 9534, 8839, -6377, 204, 20094, 614, -8461, -10262, -3679, 12439, 53, 9466, 4036, -13259, 12945, 13858, 20486, 4207, 22384, -13342, -10961, -9553, 11910, 7685, -8921, -14711, -19331, -26786, -5523, -10588, -20133, -10242, -20167, -17029, -20351, -21111, -19495, -9189, -8680, -16195, 9370, 10800, -2097, -27917, 4740, 9231, 22191, 24878, -9496, -13584, 583, 1610, 21503, -4553, -9610, -5922, 3320, 1984, -2014, 8169, 5661, 14835, 17077, -4933, -6465, 14415, 6557, -6231, 3991, -11486, -6670, 11401, 704, -4480, -8740, 7777, -1421, 3446, -1484, 6029, 9509, 4613, 10126, -1348, 19297, -11496, 5028, 6786, 4915, 7080, -14424, -9264, 6892, 5832, 13153, -11521, -22133, -14288, -12852, 5641, -14672, 1667, 1993, -1500, 12446, 26892, 16125, -3030, 7448, 23637, 16629, 15837, -716, 10659, -1421, -56, 7210, 7021, 19754, 7380, 33, -7694, -13011, -13910, -13336, -986, 8879, -3283, -5807, 10310, -12362, 2573, -7723, -18695, 1949, -2160, -17768, -16689, -19657, 10900, -9822, -23550, -4823, -17514, -8165, -18966, -22200, -18045, -22750, -19742, -21014, -12288, -11520, -3044, 1140, -8110, -6438, -2456, 14564, -18835, -51, 14852, 486, 2440], [12106, -5365, 13139, -7902, 3080, 4413, -8782, -6058, -7178, -3619, 9963, -7040, 5979, -6430, 9078, 5823, -5277, 1035, 312, 10509, 5021, 11529, 9213, 4157, 5581, 9252, 3282, -11734, 10733, -3713, -6665, 3286, -5032, 3013, -7501, 166, -5929, -8701, 701, -15707, -1778, -12710, -18971, -16856, -7296, -13879, 2965, -12570, -9419, -5961, -11200, -1602, -7723, -2117, -7126, 11726, 5452, 5972, -3070, 1909, 8011, -4255, 2587, -5850, 5027, 10611, 10271, 2003, -8065, 4482, -3237, 4333, -11253, -15626, -2445, 11423, -1189, 2796, 8898, 5253, 3315, 9122, -5217, -2807, 7711, 1355, -14768, -2079, -564, -9739, -20680, -10850, 5289, -13819, -3095, -9442, 618, 418, 2708, -15156, -11101, 1882, 7575, -1212, 11057, -11201, -8469, -3565, -1337, 5118, 4326, -9075, -6433, -1455, -895, 7205, -11021, 1356, -8626, -1950, 12400, -6830, -834, -8470, -4989, -14470, 1896, 7578, -10630, -1523, 4278, 13070, 11267, -10366, 3510, 11698, -9622, 2699, 5007, 5834, 2830, 15120, 6761, -1171, 16978, -5596, -13801, 1245, -3305, 15811, 6162, -1874, 11563, -9071, 10205, -4290, -17138, -5639, -11749, -10841, 1673, -12283, 2559, -8667, -10483, 723, -4417, -5846, -1207, 11257, -8983, -725, 10062, -9546, -2392, -3966, -11489, -10324, 3701, 7947, 78, 7144, -6950, 2773, 6324, -6069, -10371, -5681, 6377, 739, -13512, 7705, -1052, 3034, 4691, -13580, 1787, 5324, -9484, 2915, 9793, -6757, -8126, -4051, -806, -11348, -9922, 4101, -6915, -10674, 6486, 6516, 14183, 11782, -5457, -10417, -2624, 7109, 3709, 17537, -11433, -12649, 3018, -11203, 10528, -1659, 5038, 10353, 7125, 3324, -14229, -4069, -1353, -12562, 528, 9482, -13320, -12178, -2638, -3429, 28302, 10021, 14477, 13522, 10646, 18912, 13573, 11156, 13705, 11407, -13829, -12518, -6677, -15043, 4496, -3533, -10283, -7320, -2713, -8307, 9402, 7548, 1650, 5505, 218, -3233, -4424, 8234, 10363, 7348, -6620, 11870, 8808, 8856, -9337, 8599, -3757, 4176, -10401, 6750, 9663, 17807, 11673, 1966, 9771, 6850, 11728, -6418, -2187, -10350, -9036, 2653, -9631, -1417, -14490, -1619, 3330, 2087, -7765, 8415, 9300, 12499, 5015, -8360, -2563, 8564, 4460, 6436, 421, -8224, -5505, -9683, -11549, 8754, 6146, 1943, 10278, -478, -12067, 6963, -4365, -5749, -4528, 7823, -11111, -1866, -3577, 4572, 11414, 6181, 11362, -15964, -4714, -4296, -10745, -7708, 2767, 4294, -14669, -14448, -9851, 3601, -11950, -5977, -14083, -6321, -4179, 11794, -8561, -2528, -840, 2203, -10522, 10084, -15917, -7063, -2910, -19510, -6017, 750, -11580, -1616, 8440, 6781, -2760, 3678, -712, 2734, 6236, 2345, 5028, -9572, -597, -1938, -8400, -3533, 6294, -14925, -239, -916, -20685, -17132, -19673, -20027, -13573, -5410, -13829, -16939, -4814, -7758, 4080, 2868, -12523, -19830, -11009, -6395, -10981, 1292, 7105, -9190], [1153, 5956, -1467, 1387, 1575, 4247, -5203, -12672, -8273, 1815, 1572, 4188, -4943, 1849, 832, 15541, 11869, 8888, 7578, 1562, 1466, 6224, 6051, 413, -5917, -15096, -12424, -20577, -17111, -20781, -5680, -17195, -6066, -22464, -18007, 7539, -773, -6955, -19487, -15601, 10509, 12579, 1879, -8525, 14822, 19266, 15300, -8651, 12487, 15964, 2359, -8604, 10854, 4506, -5779, -5477, 7297, 5616, -611, -11858, -16774, 9284, 19618, 14060, -5819, -22165, 9809, 12030, -3328, -9758, -17397, -17054, -10470, -5803, -10948, -15414, 3982, -6071, -8649, -28673, 10446, 973, -12985, -2754, -4242, 7592, -7217, -4978, -13636, -18245, 19617, -7372, 6311, 1849, -10538, 8515, -3207, -9317, -3135, -2523, 1686, -11584, 2818, 2697, -4665, -19764, 9378, -3536, -11057, 15948, -8633, 6901, 19564, 25405, 15636, -13962, -7169, -9, 19026, 23709, 2252, 25301, 9018, 9332, 405, -20695, 13149, 3281, 12239, -19730, -8147, 1086, -7263, -2883, -5245, -20120, -8311, -464, -3287, 2346, -17458, 1579, 9407, -10365, 5524, -2155, 13673, 14181, -2927, -12579, 12151, -11035, 407, -14362, 6560, 9286, -13421, 592, 23116, 14282, -13854, 17879, 8290, 6123, 8153, -10104, 9619, -6634, 15266, 22170, -19477, 2532, 2344, 5149, 42387, 8321, -491, 3441, -2176, 3362, 12155, 3132, -12571, 11667, -12627, 349, 7771, -6867, 7886, -4023, 7832, 13123, 4977, 2721, 1694, 7278, 659, -2555, -6139, -6807, 10279, -13866, -3663, -12685, -1947, 10611, -9224, -17050, -2668, 20042, -5215, -7840, -7322, 2536, 8383, -10138, -2944, 4582, -3974, 12364, 9088, -4888, 4079, -6963, -3012, -8735, -20818, -7955, 4059, 16428, -12052, -1774, -12957, -6552, -7006, -12215, -2039, -12677, -13576, 6838, 3127, 17747, -6144, 6429, -7141, 20330, 1548, -8501, 4971, 5759, -10024, -162, 6422, 7408, 3520, -14625, -7880, 15915, 1146, 2546, -22256, -18048, -11797, -7455, -19768, -23296, -16975, -6758, -10861, -7160, -10121, -13408, -358, -18135, 1635, 190, 12277, 15258, -12372, -7585, -6406, -14392, -4078, 11614, -15024, -1926, 6298, -5485, -14667, -17212, -15477, 14464, -3157, 2771, -1790, 320, 3629, 8386, -230, -13913, -1396, 5787, 14430, 1675, -8445, -9137, -7157, -3282, -5372, -12155, -7559, -8501, 1626, 12033, -2443, -9431, -12868, 3349, -2076, -5063, -23653, -259, -2523, -5790, 7081, -6660, 7600, 6383, 23686, 29723, -739, -12073, 1104, 11266, 6998, -777, -1657, -787, 14637, 2234, -11917, -1596, -13712, -251, -4714, -11320, 6542, -19576, -11701, 5109, -13836, -10008, -14875, -9190, -9707, 9458, 6557, 20520, -7878, -4916, 20065, 17610, 12271, 7933, -6021, 33644, 27165, 21606, 19249, -824, 25512, 12222, 16023, -6547, -12066, 14919, 7371, -11322, -14199, -10363, 13439, -5864, -1129, -21298, -9884, -1929, -7736, -4999, -16462, -1971, -2368, -4914, 3078, -3534, 2069, 8200, 427, -7252, -772, -14469], [5050, 11285, 12463, -1459, 16607, -113, -5814, -364, 3449, -3365, -4844, -17797, -8533, -6432, -11205, -7779, -30016, -22751, 4006, -8513, -9172, -7282, -14118, -18447, 6937, 11966, 238, 16657, 9961, 26368, 2378, -138, -5284, -10375, 152, -7216, 12222, -14670, 3460, 6975, 7014, -12158, -14970, -13164, -18911, -2980, -16515, -9506, -16501, -5074, -4634, 3005, -8202, -6962, -23091, 4973, -5145, 11013, -10181, -8179, -8972, -13454, -13126, -1587, -3061, 280, -3353, 5486, -14635, -5813, -14106, -3211, -4874, -8734, -13990, 6922, 9984, -13031, 1047, 14060, 7698, 9802, 1485, 6280, 5859, -7163, -1685, 11546, 13072, -14372, 5958, -7241, -4949, 881, 725, -7115, -18139, 7843, -13811, -1735, 10288, 5891, 8444, 11522, 21460, 14481, 5422, -5353, 6575, 10885, -3524, 6842, -5108, 4760, -19329, 33519, 14955, 8840, -5800, -3526, 28346, -301, -2338, -1523, -2584, 10771, 135, -7688, 1401, 18416, -3736, -670, -7501, 6872, 19030, 17445, -15793, -22094, -2735, -8698, -5404, 10163, -431, 3171, 13807, 10992, 24194, -12956, 20187, 30699, 885, 5790, 3802, 5846, -4533, -3987, -14368, -17800, -20038, -2649, 7375, -6589, -9038, -874, 17235, 14176, 19653, -3827, -4244, 19710, -6465, 3927, 15586, 2543, 37376, -5645, -6670, 548, -11378, -5054, -9009, 259, -9914, -5539, 8038, -6604, 8024, -2160, 15255, 8842, -17376, 6046, -2404, 16784, 11367, -25603, -9426, -12889, 14692, 23814, -7479, 4752, 10098, 4613, 15245, 17899, 5106, -5163, 13281, 716, -4805, 2411, 1725, 9571, 4450, 2619, -9691, 13873, 9052, -10577, 6363, -7560, 19127, 6289, -18295, -15070, 1482, 15760, 12754, 9114, -15399, -1030, 6975, 3867, -11799, 13222, -2049, -9414, -7238, -7708, 15760, -14178, -11191, -3050, -11098, 18317, 20221, 311, -1110, 14342, 5740, 11166, 10370, 749, 1100, -86, -4511, -8738, -3393, -6540, 7545, 25467, 1440, 15957, 18707, 4701, 8601, 17321, 10594, 20628, 8584, 3431, 6370, 16332, 13952, -9747, -6162, -140, -4937, 2255, 2486, 14837, -7709, 6589, 5938, -182, -4756, -3176, -6002, -1045, 7436, -3422, -45, 4255, 8883, -3906, 14367, 26001, 21230, 5263, -7153, 4471, 2957, 9276, 9006, -5492, -5221, -8572, 15028, -7578, 14447, -292, 17178, 13880, -7137, -4794, 2012, -15997, -2994, 7063, -5168, -1222, 1450, -8736, 8500, 1097, 10100, 314, 2008, -5787, -9747, -13393, 8197, -3670, 998, -12627, -6905, -749, -656, 9037, 3712, 1690, 4308, 4550, 609, 13503, -2914, 7990, 7805, -4503, -20894, -7280, -6043, 10812, -8058, -20285, -9382, 4226, -25964, -18828, -28205, -24802, -10158, -17934, -6922, -8948, -19597, -21256, -1378, -10456, 9596, -21641, -11806, -21538, -2340, -5365, 3889, 19754, 2238, 18117, -7963, 2134, 2004, 5315, -3422, -739, -2022, -13398, -10102, -25688, -7365, -729, -12112, -19329, -5986, -27029, 4037, -18664, -20225, -5302], [11369, -2961, -8588, 9424, 4998, -8703, -4055, 8339, -10378, -5910, -13617, 7016, -4113, -10813, -9949, -508, 8091, 1656, 16434, 2477, -8835, -5254, -8921, 2715, 7130, -5776, -10861, -14336, -20509, 2565, 7935, 7493, 3744, -17564, 6533, -5718, -5430, -4358, -4645, -15426, 4935, -9529, -12865, -15398, 5644, 20439, 11014, 13118, 3876, 14304, -10042, -8759, -15903, 1241, -7793, 8403, 4261, -2527, 3925, 8380, -16888, -860, 6053, 15927, 1503, 676, -752, 602, 10524, 9232, -18453, 788, -12625, -12221, -20048, -19704, -28917, -16327, -6952, -35849, -24710, -16195, 4212, -11593, -8906, 8466, 691, 16512, 4311, -19757, 467, -12128, -4815, -3286, -11134, 1472, 5684, 1234, -8753, 9143, 14452, 5353, -19209, -2086, 6285, 0, 902, -2881, -16497, 6997, -585, 19502, 11051, -8973, 9347, 17407, 14678, -3318, 3005, 3637, 6413, 6585, 12900, 14110, 12115, 3473, 4267, -18095, -3561, 6377, -23726, -23345, 2088, -8908, 7987, 6520, -14544, -21947, -6405, 9965, 25848, -2458, -902, 7734, 15038, 30235, 3315, -8727, 337, -16900, 27295, 13687, 8086, 11324, 24450, -215, 9987, 12596, 328, 14988, -15491, -5085, 14845, 2276, 11153, 5241, 7995, -2998, 21427, 13326, -8480, -3172, 2322, 13954, 29150, -6432, 7908, -7398, -5554, 8180, 12049, -9666, -12477, -5830, -2158, -3723, -9081, 9611, 2034, 1008, -10132, -10273, -7099, 11549, -2538, 481, 9608, 7049, 8712, -622, 16511, -2345, 13966, -10321, 8299, -231, -9575, -8790, -16753, -3801, 15743, 10075, -59, -4933, -8349, -5588, -3710, -3110, -5417, 4952, 5186, 2951, -6156, -7765, 2347, -1805, -13940, -1644, -1594, 4737, -351, -11186, -10726, -4427, 12548, 18327, 10239, -26289, -12213, -10343, 9051, 9327, -5886, 687, -15209, 26250, -2948, -9222, -15906, -20253, 11219, -12533, -3656, -2373, -11009, -518, 3350, 6445, 10640, -8591, -5004, -6328, -16743, -6873, -6355, -6782, -11622, 8478, -13227, -9320, -16361, -4198, 7573, -14170, -4893, -1375, -13252, 4724, -5581, -12377, -4546, 10542, -106, 22479, 4099, -16840, 5530, -9315, -902, -14694, 8344, 9096, 15746, 17493, -9882, 2050, 35389, 30191, 32433, 23602, -170, -568, 4648, 14352, 7488, -13020, -14561, 901, 3562, -3332, -8425, -14283, -672, 1676, -8849, -10651, 85, -9163, -1076, -10073, -17154, -14633, -8451, -7720, 3648, 34901, 33299, 22126, 27365, 34182, 5467, 9575, -8135, -5328, 16595, -10825, -10181, 1341, -4951, -2204, 17796, 308, 9673, -2270, 3812, 8312, 15919, -5112, 1444, 10720, 21744, 41, 8046, 3058, 11871, -3043, 6830, 2578, -8756, 8878, 4056, -7303, 2606, 2313, -13792, 11115, -1155, 19512, 9774, 3202, 22709, -4911, 8043, -12720, -9845, 1541, 10586, -3352, 23751, 9746, -1701, 7316, -782, 1718, 6145, -12763, -22507, -3331, 814, -15644, 15826, 2199, 14973, -10300, 834, 10317, -9984, -18650, -7994, 13081], [11794, 6960, 259, 7856, 1947, 954, -5679, -10291, -13251, -2417, -9163, 9715, 9747, 292, 3354, 6104, -10742, -2663, 10335, 1769, -5806, 1198, -6949, -13390, -6514, 581, 7515, 20342, 10843, 27181, 12190, 13177, -2286, -317, 17254, 10216, -9390, -9816, -2711, 2460, 15469, 7121, -315, 877, 17198, 8544, 9007, 19089, 17511, 11137, -17994, -4430, -13976, -8732, -11557, -4069, -13088, 6298, 11167, -5394, -3784, 847, -10392, -297, -6919, 9857, 6580, 134, 2302, -13477, -8753, -4462, 5971, -1454, -1469, 17418, 10717, 1579, -2905, 22458, 19133, 7953, 1067, -12639, 4214, 426, -2473, -14572, 3307, 6762, 19784, -15310, -10170, -14301, 14367, -5978, -4886, 2003, -5480, -5889, -19194, -2750, -1993, 5989, -615, -2796, -10799, -19676, -17292, -10721, -1338, -11776, -819, -580, -182, -7171, -6395, -2667, -9304, 1160, 12215, 14309, 2771, -3279, 15925, -13230, -461, -6708, -21452, -4646, 20081, 6656, -13022, 9411, 1902, 9833, 5070, -17138, -12751, 535, -4907, 7619, -8044, 9515, -840, 15762, 16340, -3492, 7186, -9061, -18451, -14421, -9973, 9772, -26273, -5199, -140, 8111, -4928, 2602, 5061, 5397, 9851, 10378, 5031, 15059, -7877, -2124, 7179, 13781, -8993, 8690, 11760, 2470, -7338, -12769, 95, 6225, -15439, -12849, -7831, -10790, -9805, -9462, 1970, 15288, -8137, 9729, 4910, 3988, 8295, 744, 1541, -11818, -14013, 4797, 18380, 12240, 6027, 18556, -21641, -3243, 3717, 5543, 1022, -24763, -3422, -11866, 4226, -15125, 4244, 875, -4419, -1872, 13230, 3354, -3536, -12673, 5837, -2901, 10819, -131, 2986, 5434, -3686, 1429, -3932, 371, -10458, -18241, 20695, 6963, 4612, -1602, -10604, 26177, -176, 5317, 11884, -6059, 9219, 3695, 12526, 6987, -6130, -9362, 11969, 526, -3771, 6340, -5190, -12581, -13384, -3526, -375, -477, -9978, -4912, -13253, -435, -10054, -12421, 5550, -6053, -9398, 10589, -6491, 11655, 1342, 6063, 12970, 1857, -3167, 11830, 4046, -19491, -12513, -1019, 9419, 31985, -6233, -14570, -9282, 1519, 2864, -12687, -2247, -11292, -6580, 5699, -6310, -1027, -10933, 3624, 10862, 6844, 11083, 7694, 9871, 10879, -6046, -1904, -9272, 1305, 2784, 697, -13600, -1381, -9452, 1227, -5051, 7301, -5371, 860, 7512, 7325, -8057, -2052, -90, -2609, -10291, 4261, 1964, -11345, -14615, 11577, 10456, -13608, -3749, -28213, -7708, -11353, 14766, -18720, -28582, -8024, 21290, 16502, -4931, 3811, 10484, -16622, -1327, 4789, -9504, -15444, -3976, -4980, 6206, -16699, -5183, -5227, -5924, -15704, -17203, 6573, 11865, 7140, -22485, -27084, 30857, 5921, -10508, -14339, -22664, 4479, 18121, -13580, -11222, 3820, 3850, 14361, -15397, -1483, -18897, -19500, -4657, 6264, 8535, 5761, -9861, -12672, -9637, -2207, 3760, -15351, -12831, 16979, -1591, -6089, -7729, -13587, 9025, -12712, -6699, 5037, -2570, -8775, -6313, -3171], [14470, -463, -2939, -11525, 3020, 12671, -8320, -9745, -3227, -2420, -8232, 9370, 7919, -6016, -5626, -3747, -15806, 7150, -11508, -844, -3810, 11154, -8727, 9168, -5939, -3006, -11315, -4719, 9298, -12337, -11583, -11022, 10341, 473, -13151, -8984, -11375, -2029, 13288, 7483, -7503, 6013, 10432, 2080, -12655, 18, -5239, 9194, -3739, -2569, -541, -6965, 7604, -5310, -3885, -1760, -1194, -8174, -2305, -811, 7083, -6159, -4638, -11193, -6776, -8690, 9513, 1592, -5440, 2308, 898, 12828, -3175, 4176, -7070, 7923, -12253, -8490, 4242, -8295, -5603, -9356, 8577, -1493, 5942, -6437, -5209, -8884, 6358, 2574, -7672, 3808, 6220, -7119, -9917, -8390, -1276, 1754, 8663, -502, 6618, 3932, -3328, -12131, -11649, -13458, 2542, -11252, -6248, -5998, -9212, -2347, -1624, -8805, 3467, 1316, 5079, -1444, -793, 7085, 8341, -149, -4752, 13449, 2829, -3771, -4045, -5615, 332, -7653, -11931, -7671, -3594, 5137, -11060, 10884, 12434, 6183, 9289, -13568, 12581, 12029, 6392, 2530, -4453, -2475, 2118, 13815, 8547, -1039, 4646, -2869, -9398, 10091, 4905, -16248, 10176, 7455, -8986, 4347, -12214, -11012, -871, 16044, -7873, -5458, 601, 14343, 4435, -7605, 6960, -9694, -5859, -8770, 8864, 7297, -4643, 9554, 5397, 4186, -1276, -1212, 13396, -1942, 775, 1875, 5625, 10937, -3917, -6949, 11607, 11803, 4399, 7895, -6935, -5531, -6538, 10425, 8557, -10947, 11471, 6750, -10264, -10808, -994, 9812, 10542, 7575, 641, -15388, 11288, -4695, 1015, 13569, 1916, -4826, -6295, 15170, 6487, -10003, -4579, -135, 12738, 8719, -4935, -8221, 11294, 2038, 9927, 11670, 3406, 1527, -3138, 10711, -5406, 13888, -4300, -1446, 16308, -10120, 8480, 6498, 9787, -8943, 7258, -15294, 3463, 3890, -14020, -3383, 8439, 9801, -5840, -9325, 15246, -7473, -11158, -1096, -6192, 9451, -6501, 2271, -9895, -9455, 5308, 16493, -6171, -7699, -10211, 9897, -809, -2782, 451, 7621, 14429, 7477, 4410, -4539, -3832, 9181, 4925, -5066, -5125, 7843, -2476, -10454, -7857, 11484, -3436, -6512, -6358, 2119, 4371, -7685, -14623, 2826, 6415, 10632, 9967, 12361, -5755, 12448, 4923, 1235, 9719, 11117, -2553, -705, 3752, -710, -7236, -4927, -5290, 1339, -2983, -11745, 1683, 14212, -11733, -702, -9125, 8989, 9044, 4978, 3678, 6260, -1643, -13606, 11140, -1255, 10118, -11623, -8045, 12280, -10082, 2301, 1413, 14087, 11627, 7741, 11322, 13229, 6002, 462, 2218, -7524, -8265, -8284, 5634, -11012, 10593, -2002, 6125, 396, 2168, 5355, -11458, -3600, 2484, 8755, -4933, -6662, -10473, 2136, 3315, -449, 8290, -14490, 8839, 5912, 10896, -7005, -6756, 295, -1147, -6723, -11965, -7000, 9865, 8134, -9763, 2751, -436, -554, 8543, 4844, -8061, -2079, 9973, -4213, 2689, -1289, 9450, 12269, 16895, 2306, -7640, 1697, -7789, 13971], [-6155, 7316, 9081, 18064, -5358, 4026, -2192, 27499, 28578, 19282, 9788, 2189, 3716, 15370, 21305, -4769, -13166, -8192, 12456, 10065, -8250, -11089, -1291, -6454, -7413, 1727, 8158, 6124, 6341, 39455, 11843, 15441, -4309, 23054, -3425, -16666, 5323, 12083, -11322, -17888, -10946, -2248, -1572, 10530, -17870, 498, 17604, 13213, 10003, -8936, -17558, -6014, -13734, -16814, -10348, -12432, -16689, -5739, -15491, -11245, -9409, -31733, -33230, -13978, -27619, -3464, -6046, 6011, -19130, -9655, 10940, 7464, 12892, -5219, 8950, 11886, -129, -16904, -5919, 27993, 8706, 11787, 2877, 11218, 31107, -3583, -2682, 34469, 23726, 608, -2806, -7684, 11890, 17669, 8171, -17358, 6878, 12300, 3845, 15506, 18316, -9665, -17585, -17128, -2151, 24376, -10263, -16201, -14307, 6943, 38407, -5378, -9435, -17844, 21860, 41200, 11074, -9090, 6637, 17481, 20538, 12664, -3923, -6206, 1006, 25073, -12829, 5018, -2325, 36214, 19863, -16439, -10712, 12917, 23507, 1685, -9632, -22770, -12806, 12405, 8088, -10296, -4591, -786, -12462, 21703, -6068, -9929, 428, 26705, -7873, -13187, 11733, 21392, 28817, 14397, 7250, 1984, 23573, 34032, 4339, -8244, -14430, 13246, 7737, 13410, 7670, -15793, -8596, -5548, 9728, 1716, -427, -1671, -4479, 1489, 1262, -16707, -4805, 9461, -12507, -12095, -5489, 8766, 11411, -6073, 1871, 3650, -4250, 21883, 3276, -7206, -9756, 7566, 37634, -18216, -8269, -1610, 9011, 23726, -20566, -17034, -13289, -5050, 16821, 5911, -9318, -519, 11485, 9474, -415, -4342, -2653, -213, 18128, 2664, 15285, -3157, -8292, -11656, -9074, 8273, 5349, -1603, -18374, 32248, 3630, 13636, 10570, -11930, 25363, 6977, 14430, 15164, -15205, -5, 5614, 13881, 15617, -4270, -9339, -3324, -129, 12177, 16, -3542, -12464, 346, 5309, 9101, 2190, 14264, -4636, 10090, 7756, 11757, 18790, 7226, 23271, -1954, -3021, -18126, -21510, -2038, 3015, 691, -16873, -11400, -5756, -9064, -5363, 4493, -16853, 7617, -6856, -7488, 10876, -9036, 12483, 10648, -4230, -15973, -16726, 1845, 18012, 6757, -11242, -167, 6660, 17942, 684, -23322, -23672, 1536, 14005, 10508, 6014, 4537, -284, 10691, 2240, -13191, -10032, -18307, 504, 2658, 299, -6975, -7393, -4634, 18881, -2246, -2117, 10630, 10538, 9818, 826, 8484, 10750, -8472, 13208, -3893, 11829, 2883, 3796, 10725, 5739, -785, -9865, -18959, -18373, 4262, 12162, -4377, -13802, -27870, 2829, 1483, 1265, -1253, -9393, 16058, 14805, -5310, 14708, 28399, 32601, 15610, 16173, -6896, 2400, 7110, 10425, -4090, -40544, -24586, -3212, 7976, -17846, -5878, -25497, -28403, -1429, -2277, -8793, -31935, -31404, 2123, -1059, 8647, -29938, 7322, -6802, -3505, -8754, -15497, 12809, -3571, -10545, 23499, 3215, 3689, 2411, -8818, -954, -1554, -1618, 14354, -11442, 10883, -56, 10696, -5726, 13381, -11642, -3642, 32675, 10970, -11929, -2159], [-5940, -9967, 14518, 10448, 3011, -3045, 1343, -1143, 5066, -9415, -1668, -23386, 6613, 9283, 12973, -10137, -4098, -13911, -3079, -15036, -5049, 5045, 5341, -15594, -9728, 8177, -9686, -3710, -10221, 32527, -21498, -20080, -13299, -4812, 2809, -7775, -7423, 14901, 4813, 10585, -11693, 3066, -13845, -5820, 331, -30346, -17270, -4079, -2917, -6673, -10513, 4349, 7770, 1889, 8465, -4925, 1297, 8336, 374, -3194, 18885, 9336, 12044, 10691, -10354, 18263, 24542, 13184, -953, 637, -4713, -4097, -8396, -4091, -832, 23894, 6234, 10854, 11405, 31236, 9394, -5773, 10532, -6274, -6155, -16584, -23025, 6247, -1449, -8212, -16364, -8438, 19066, -2365, -1698, -16962, -1629, 13631, -483, 7784, 6506, 5986, 22783, 24981, 23782, 7240, 5128, 758, -7876, 6797, -5513, -24490, -5356, -20825, -24862, -454, -17299, -21308, -5082, -25456, -5664, -17495, -20749, 1357, -16073, 5445, -1681, -16202, -4671, 20011, 7216, 3806, -4016, -12612, 12967, -14373, 5319, 10564, 9567, -1227, 585, 414, 1982, 11646, 714, -826, 11010, -1375, 16796, 24883, 12158, -8307, -22579, -7655, -14021, -17270, -30937, -20240, -12707, -15092, -865, -13831, -5448, -5191, 9573, -35, 10585, -3283, 2610, 26173, -6706, 13995, 2381, 23115, 31190, 19118, 23204, 18892, 5678, 16928, 14127, -11048, -11182, 828, 17409, 1200, 8409, -6550, -525, 13648, -13890, -12713, 473, 546, -10756, -13708, -9092, -9493, -1346, 7001, 9573, 16246, 15949, 8833, 1923, 3002, 11364, -1208, -9348, 643, -11015, -1871, -1137, 377, -5964, 2904, 4743, -14517, 3355, -4342, 5244, 7837, -1588, -12512, -20870, -5116, 14377, 211, 9, 20246, -10384, 20523, 15524, 6417, -2676, -8983, -478, -16380, 745, -10032, 18599, -10996, 6839, 4217, -12418, 18477, 4684, -16473, 10503, 2839, 12594, 5542, 8061, 10321, 2181, 860, 16397, 15684, 17420, 2197, 23046, 29902, 27916, 26684, 19207, -492, 19011, 8703, 9199, -681, -2979, -10807, 5350, 15659, -6765, -11554, 5219, 1249, 10713, 3153, -12483, -354, -12053, -15260, 1882, 7057, -6562, 13439, 16401, 43, -1066, -6371, -3147, 1848, -9231, -15545, 11214, 620, -3050, -14191, -5252, 12914, -10587, 10543, 5723, -3990, -117, 1113, -6229, 11217, -7837, -5509, -5125, -292, 2397, 15701, 601, -4313, 2195, -8339, -11089, -6897, -2191, 4679, 11501, -18420, -23290, -2165, -15915, 5586, -6795, -6092, -23310, 3967, 8773, -3461, -19557, -5539, -8284, -18387, 3417, -5815, -5342, -3670, -5054, 24830, 8700, 2826, 21325, 18733, -16116, -14749, -6927, -4483, -13358, -5158, 2835, 9041, 9332, -14287, -11840, -4775, -13564, -2082, 10101, -17073, 6381, 2959, 15424, 15624, 4656, 1757, -3693, -12091, -10039, -11072, 6394, 8733, -4108, -1132, 308, -7788, 13645, 13665, 996, -6867, -2561, 12003, -7892, 10624, 2169, 7784, -9811, 4823, -5197, 7507, 11335, -8214, 8241, -17286], [-6165, 912, -9725, -8743, 10821, -2729, 12607, -235, -9043, -10846, -1887, -10689, -2593, 11419, -10733, -11908, -10984, 695, 6911, -1246, -4664, -1242, 7475, 4704, 5088, 4202, 1656, 1639, -102, 640, 3011, -1889, 7551, 4668, 1695, -1069, -3273, 5120, -9271, 1891, -10325, 2825, -114, 12961, 8656, -6277, -4439, -9638, -4397, 2304, -3217, 1735, 8356, 4840, 511, 8976, -8304, 637, 70, -5840, -10372, -2830, 13718, 3959, -9174, 4711, -7563, -1437, -12582, 3544, 13238, -3516, 9586, 4655, 17933, -14116, 3245, 1158, -2234, 7492, -1875, -14756, 8212, 5242, -1039, 4014, 5466, 9372, 1649, -9099, -7686, -355, -5910, -4472, -11009, -13642, -12010, -11004, -8979, -6553, 3137, -11677, -7111, 8519, -9222, -239, -5940, -3903, 7068, 6026, -1250, -10694, 1576, 1427, -7377, 345, -9948, -3428, 8660, -8419, 3351, -5097, -10362, 11194, -5778, -341, -12909, 6666, 9623, 4383, 5720, 5618, -4114, 7960, 9448, 7917, -8042, -4729, -4153, -5717, 5485, 4300, -1302, 6685, 5951, 1704, 8741, -10723, 10633, -6203, 12023, -3325, -323, -6857, 7839, 1886, 8449, 8033, -7207, 8161, -812, -5245, -4183, -298, -8804, 1516, -6083, -3233, -2329, -10407, -2371, -1357, 6780, 424, -2757, -4493, -6881, -9830, -10736, -7390, 905, -4362, -12316, -919, -4756, 9013, 6629, 13971, 10255, -7683, 9559, 4847, -5735, 10467, 11340, 8671, 6055, -7130, -6320, -12149, -6722, 11002, 2864, -164, -5153, 6576, 14088, -7761, 8551, 840, -10273, 9513, 5741, -7640, -6989, 11721, 3506, 7806, -6637, 12104, -12298, 5466, -4657, 14344, -7511, 13478, 12588, 1187, -9271, 8728, 12199, 5016, 9018, 2669, 2153, -3754, -5713, 8084, 7883, -1293, -8847, -643, -11219, -2563, -4975, -5023, -11515, -10683, 2440, 1842, 12381, 1213, -10894, 2585, -7713, -4515, 2825, 10298, -5585, 14685, -11938, 2898, 296, 3117, 5163, 2005, -10957, 10169, 764, 1323, -8559, 939, 10666, -10427, 2192, 10297, -10337, -10826, -10457, -12650, -10469, -4204, -1954, 7976, -6062, -1570, 7703, -2934, -2081, -5164, -4076, -13422, -5875, -11323, 7778, 609, 199, -11516, -11262, -704, -7666, -12111, -4936, 2758, -11989, -10628, 1081, -8553, 4603, -6369, -8142, -1762, 5301, 283, -7077, 9742, -4635, 9809, 10668, -2244, 11973, 9017, 4614, 4414, 4843, -4490, -6295, 10274, -4449, -8585, 13198, -14651, -10237, 7891, 7300, -9863, 1566, 11892, 5313, 3582, 4273, -67, -8728, 10605, 5117, -8664, 3285, 1460, 7385, -15310, 2219, 666, 1841, 5620, 11943, 6035, -7805, 11368, 10928, -1723, 6091, 5881, -6875, 7472, -6658, -8761, 1865, 826, -7954, 11602, -3960, 11181, -4333, -11623, -9306, 2251, 12447, -7664, 5590, -5721, 924, 14816, -12122, 253, 1680, -9398, -4699, 5838, 5875, 6548, 5938, 996, 6164, 5388, 13066, -2420, -1525, -11011, 1037, 2953], [-332, -2417, -10460, -12577, 164, -1512, 8931, -6077, 1503, 10973, 11346, -8539, 11654, 10504, -5345, 10179, -11203, -8508, 10441, -11927, 5189, -11950, 463, -6022, 8638, 9875, -9356, -10027, -5190, -4663, 13766, -7641, -9445, -2219, 2680, 7275, -10968, -1163, -2318, -6051, 15073, 4232, -6046, -11335, 6667, -253, -9112, 69, -12644, 6401, -2093, 6896, -746, -10090, 9139, -1005, -3478, 7126, -2473, 11569, 9990, 13901, -11701, 11967, 12570, 6367, 9428, -4903, -2044, 8695, -8993, -548, 5935, 17800, 1887, 4096, 4338, 1920, 17269, -5758, -1727, 15681, -7605, 6739, -2178, 8971, 7583, 62, 11883, -752, 10094, -1211, 7815, 14191, -3870, -5412, 6542, -5726, -6976, 3738, -2786, -5263, 2119, -687, -11093, 6765, -11700, 7615, 10289, -10314, 5772, -2501, -9456, 7478, -11955, 5310, 8491, -9216, -4721, -6916, 12176, -6318, 2922, 4779, -6442, 1060, -9825, -5010, -10583, 304, 5069, -5835, -6795, -7913, -1561, 12860, 1713, 5385, -13713, 8521, 3783, 6326, 7043, 11743, -1753, -3726, -7697, -2425, 7859, 5939, 4093, -1809, 1236, -16234, 3124, -11384, -4831, 8674, -13244, -1604, 6288, 823, -8178, -13, -10055, -4386, 7267, 4372, 6109, -13931, -13578, -11368, 7779, -14104, 7274, -4855, -606, -14441, -11442, -11125, -11072, -2154, 5803, -723, -11440, 8404, 4017, -4765, -5974, -1034, -9410, -1587, -12383, -11607, -14309, 5703, -7340, -3256, -161, -11577, -9546, -14142, -13965, -2498, -10843, -2902, -16239, 2687, -9856, 8998, -12935, -8043, 6752, -5190, 8621, 5187, -1376, 12751, -2657, -4460, 12669, 8682, -2465, -8975, -15427, -5207, 8997, -2444, 1529, -5001, -13830, 2698, 3602, -478, -3604, -3178, 11134, -4269, 3060, 5096, 15366, 11805, -5883, -12499, -4258, -1564, 5036, -2443, -2246, -15409, -9678, -6610, -13664, -3998, 424, -9784, 6044, -8040, -11055, 9090, -5462, -8256, 1895, 6703, 5885, -13383, 8489, 10664, -2260, -4751, -2431, 7184, -8383, -6004, -5419, -4687, -13563, -6530, 7968, -9573, -4191, -11651, 206, -14575, 24, 3045, -9801, -8991, -2776, 4715, -10601, -6829, -134, 2483, -477, 4511, 5161, 5690, -12204, 8086, -4922, 662, -14459, -8970, 8634, 9351, -9813, -10403, -4388, -4031, -3996, -12442, -14750, 7850, 7206, 2429, -1826, -11560, -3890, -4563, -12306, 4137, 6182, -13988, -1604, -6572, -14390, -13623, 11082, -3933, 8845, -4453, -9469, -385, -146, 4926, -1002, -2389, -9809, -15156, -5806, 5425, 1432, 11341, -11233, -15792, -3933, -13543, -8855, 2539, -14660, -2424, -13425, -7395, 10385, -15794, -3373, 962, -13263, -11005, 5174, -1500, 5767, -1341, -7965, -6647, -8863, -11996, 6203, -1889, 8561, -2648, -8759, 7273, 531, -117, 7957, -11846, -9559, 278, -7673, -12452, -3716, -596, 7022, -10195, -3387, 1254, 1726, 10138, -7281, 11532, 10891, -4272, 