{"scaling": 21, "scale_base": 2, "input_shape": [1, 4, 28, 28], "layer_input_shapes": [[1, 4, 28, 28]], "layer_output_shapes": [[1, 16, 28, 28]], "layers": [], "not_rescale_layers": ["conv"], "conv_weights": [[[[[-244189, -221682, 155918], [-71071, 249627, -273035], [-41265, -335511, 121795]], [[-24459, 1060, -24602], [343574, 61391, 243637], [227691, 234619, -247850]], [[-16424, 295441, 287188], [310826, 196494, -133305], [75213, -346113, -331148]], [[-128199, -287463, -141597], [-257679, 313840, 96962], [-10536, -25442, 346709]]], [[[184593, -212392, 281396], [-44766, 7482, -264082], [-122553, -45799, -245471]], [[-205902, 306221, 45889], [-158427, 17543, 92041], [223132, -105089, 254986]], [[-218199, -12497, 5129], [-126871, 332303, -158380], [183691, 57524, -28250]], [[15565, -344218, 115571], [-65269, -342931, 326305], [179727, -6862, -320664]]], [[[-188422, -31602, 127626], [16977, -267075, -298128], [99513, -343274, -55034]], [[164081, -186899, 331674], [79508, 216889, 335530], [28677, 126475, -342748]], [[-98399, 100233, 340280], [71757, -58152, 229286], [-118061, -201345, 6394]], [[50240, 53706, 318936], [87565, 274944, -287865], [175853, -344048, 331140]]], [[[-172704, -310831, 140564], [214770, -177085, 324113], [-1469, -5678, -90334]], [[-117691, -158296, 251263], [335115, 34976, 122904], [-83358, -131449, 300013]], [[-201387, -106373, 258834], [-106242, -220616, 90739], [-223690, 142442, -331030]], [[-218654, 31750, 72243], [315651, -300129, 266413], [-194003, -87419, 75641]]], [[[144205, -257342, 142367], [-26573, -163062, -62213], [-94352, 60022, 139612]], [[314330, 150974, 46177], [-35682, -348613, -53246], [-243666, -131942, -40212]], [[151721, 334232, 343809], [-332247, 211086, -168491], [-297199, 23098, -77360]], [[-134463, 268127, 254065], [90160, -18146, -147268], [205529, -253544, -328758]]], [[[-227998, -129057, 4525], [29214, -83083, 295107], [-2402, 30148, 253268]], [[-348524, -243692, -97346], [-331509, 312479, 226800], [-38642, 263922, -334890]], [[277523, -281455, -178220], [237715, 115411, 59457], [-154826, 42020, -173240]], [[94375, 29208, 137716], [-163156, 125809, 174954], [304904, -268528, 111485]]], [[[-130417, -23888, 198226], [229290, -330135, -261747], [-236611, 226690, 177267]], [[205540, -296445, 230263], [313050, -328396, -342133], [-9041, -334810, 29216]], [[-295446, -181982, -74138], [-109463, 220500, 109263], [-199165, -45908, -171415]], [[-334132, -287161, 70114], [-124976, -1235, -54586], [28084, 151143, -340131]]], [[[5429, 124941, 5752], [327491, -77982, 57054], [-146809, 57738, -61093]], [[-302390, 295938, 211783], [335759, 41665, 191399], [-318931, 26842, -207224]], [[-349486, 303683, -176257], [199167, -60820, 101789], [204443, -2287, 28804]], [[-242353, 169822, -209410], [204213, 325063, 336076], [-79350, 282686, -6261]]], [[[320900, -151625, -306179], [108614, -79705, -262062], [-139011, 141269, 300664]], [[-28809, 80490, -194662], [277040, 45485, 299701], [340292, 191998, -259632]], [[343944, 204010, -199140], [97666, 44426, -211430], [-346435, -274742, -56115]], [[131134, -340489, 62375], [227901, 103526, -320805], [312061, -254945, 189969]]], [[[-309952, -312627, -188405], [-279160, 147167, 346782], [227674, 306889, -138531]], [[-245571, -216152, 174109], [-314390, -347933, -269287], [346939, 238137, 2553]], [[-309998, 183603, -281986], [345442, 107392, -15785], [-84246, 91203, -169540]], [[-176469, -51915, 264922], [-306272, 183814, -295359], [232650, 330351, -348901]]], [[[332257, 271561, 118984], [204003, -121563, 104560], [-128797, 57949, 293560]], [[135618, -166847, 200514], [-118101, 114476, 231016], [176569, -225840, 284433]], [[146149, -231069, 264654], [45621, -30584, 156996], [-337852, 299769, -158747]], [[189453, 100985, 96968], [-147893, 191825, -218405], [-263529, 73498, -97027]]], [[[-2959, -94014, -215306], [177519, -206109, 91260], [-121490, 72351, 122339]], [[-334803, 221830, 142802], [-176476, -35463, -2568], [105496, 117228, 49642]], [[305283, -204879, -276712], [263470, 251744, 107873], [246975, -173541, -39332]], [[-78782, 57520, 25217], [87294, 196203, 98152], [185731, 60156, 132286]]], [[[333247, -147643, 100482], [72772, -54724, -308785], [321734, -226708, 244419]], [[235306, -40088, 273621], [-28306, 236958, -238903], [187437, 295834, -288722]], [[312829, -42262, -201504], [322087, -22043, -257048], [294317, 274204, 42666]], [[310011, -130357, 94680], [73065, 288828, -337773], [341033, 103388, -143287]]], [[[246325, 340855, 15031], [266970, -309642, 338029], [267831, 294189, 320755]], [[-110141, -267199, -142660], [299683, -336425, 318963], [-173819, -12849, 302329]], [[-1510, -38215, 247780], [-281200, 35365, -200429], [-137347, -316492, 56999]], [[-92595, 182753, -104504], [-262851, 338012, -144764], [-82336, 46822, -245035]]], [[[54343, -109483, 148705], [339729, -311799, 164598], [85396, 226460, 136349]], [[112777, -161582, -113123], [-41749, 133148, 225507], [-52286, 305380, 213627]], [[3793, 104328, -277945], [66580, -102995, -327352], [-33260, 233976, -206825]], [[19935, 227666, 84069], [-71716, 63067, -128274], [-119085, -121528, -183681]]], [[[318398, -142409, 55102], [-113935, 334077, -118296], [52645, 130842, 331125]], [[-93264, 23335, 233703], [147512, 311415, -80201], [280303, 146168, -253403]], [[-313302, 206898, 137048], [-345494, -55547, 46468], [-125317, 130109, -190461]], [[-15267, 130837, 311000], [289869, 211599, 43000], [28310, -303878, -171721]]]]], "conv_bias": [[-46283882496, 80932159488, 472651497472, 316238987264, -285608607744, 665650987008, -488251949056, -639989710848, -351374344192, -592674684928, -580787830784, 241341562880, 197846548480, -353178746880, 566148399104, -214591438848]], "conv_strides": [[1, 1]], "conv_kernel_shape": [[3, 3]], "conv_group": [[1]], "conv_dilation": [[1, 1]], "conv_pads": [[1, 1, 1, 1]], "conv_input_shape": [[1, 4, 28, 28]], "output_shape": [1, 16, 28, 28], "quantized": false, "is_relu": false}