{"scaling": 18, "scale_base": 2, "input_shape": [1, 4, 28, 28], "layer_input_shapes": [[1, 4, 28, 28]], "layer_output_shapes": [[1, 16, 28, 28]], "layers": [], "not_rescale_layers": [], "conv_weights": [[[[[-25819, -29166, -64637], [37632, -39593, 8444], [40316, 18886, 127644]], [[-51588, -116964, -13816], [-33898, -24761, 16261], [72608, 105632, 83597]], [[-8146, -101090, -22542], [-24888, -23476, 18750], [52002, 67947, 77685]], [[312940, 76934, -5964], [384209, 110067, -119139], [321693, -91060, -210117]]], [[[-5585, -38481, 46686], [56461, 40126, 20808], [62649, 4248, -55834]], [[31027, 18192, -29759], [99405, 24012, -24894], [-12786, -14716, -46816]], [[-3008, 28715, 18991], [109679, 61641, -29520], [-54699, -26287, -103930]], [[158846, 337453, 197558], [332961, 387698, 211569], [-276097, -275752, -295974]]], [[[18989, -18647, -14492], [-36876, -7949, 23118], [87623, 45593, 95197]], [[-15800, -19539, 50684], [21431, -56972, -16846], [30939, 107369, 1859]], [[50992, 13845, 18577], [22367, -69611, 32261], [-16221, -25586, 6468]], [[216625, 272865, 290576], [119812, 421, 5870], [-387891, -515468, -142125]]], [[[-20442, 4563, -25697], [55409, 67209, -35906], [-58340, -45297, -27554]], [[-37991, -79958, -14435], [93047, 27626, -12597], [-13829, -44299, 55219]], [[24961, -56248, 39741], [17732, 48296, 36187], [-80416, -54759, 121353]], [[-128721, -78624, 174923], [-83753, 163112, 373800], [-155442, -75143, 250416]]], [[[-17735, -60320, -42005], [-52043, 16596, 111474], [-27925, -16663, 77904]], [[-66325, -67731, -39904], [-10801, 33696, 107510], [30749, -22093, 61202]], [[-71300, -72256, -17757], [-22296, -40999, 133608], [73260, -18626, 66922]], [[-157307, -258517, -74175], [-97630, -200750, 48538], [96558, -193317, 39046]]], [[[-93549, -5132, 31269], [-11376, 14739, 48336], [-32620, -59802, 46771]], [[-46111, -41929, 3206], [-39240, 10712, 56582], [-12306, -32383, -25135]], [[-53912, -58499, 23580], [21148, 22714, 83822], [-78616, -110008, 19363]], [[-289719, -139699, 104680], [-65826, 308919, 366654], [-121167, 162221, 229549]]], [[[-110118, -43266, -64624], [-10342, 30022, -40061], [57439, -17442, 49394]], [[-126294, -93166, -146913], [-14271, -38886, 3335], [48485, 24987, 38776]], [[-139344, -142462, -181852], [-94831, -14048, -18773], [28450, 77138, -9495]], [[-231595, -161585, -202510], [-47908, 67699, -8684], [165418, 322769, 63550]]], [[[7420, -21888, -25426], [-42455, -27962, 33697], [37869, 47113, 50502]], [[-63406, 21708, 2270], [-90237, -18351, 32260], [12532, 17041, 53465]], [[-63481, 1993, -38442], [-92278, -36771, -11839], [28776, -10647, 31744]], [[-37187, 193998, 171282], [-85095, 287171, 259718], [19206, 214227, 100244]]], [[[-49758, -68287, -27290], [-1939, 44882, -27957], [-7625, -9122, -14543]], [[-15019, -11578, -38199], [32718, 31858, -52498], [12446, 44481, -22434]], [[14542, 27819, 13791], [-13513, 24497, 4350], [32455, 59746, 15911]], [[-11842, 219555, 57228], [142886, 291737, 24599], [63474, 323647, 44454]]], [[[17538, 73832, -2958], [16177, 69490, -16853], [-1693, -6052, -16033]], [[19108, 112012, -16781], [62449, 75759, 22890], [-103921, -18094, -41312]], [[-19557, 5464, -81180], [91827, 78795, 82383], [-107501, -83143, -93603]], [[-260588, -240378, -227586], [189795, 226382, 168374], [-6398, -117401, -115726]]], [[[33623, -17937, 27032], [-7002, -22839, -43533], [45250, 46017, 131]], [[15273, -19662, -40940], [26599, 25895, -21738], [39038, 16298, -11326]], [[75708, -79845, -50307], [82037, -47339, -58416], [106783, 76508, 28455]], [[335744, -26063, -72608], [314518, -118091, -225225], [322078, -145488, -262740]]], [[[85447, -35606, 13224], [39492, 31685, -40815], [31733, 43938, -88039]], [[76079, 15453, 9648], [37980, 16366, -16325], [95426, 89345, -46189]], [[-5505, 47426, -39075], [19945, 64205, -115023], [17587, 142438, 40502]], [[-143671, 257262, 304250], [-235488, 124954, 80509], [-261085, -107513, -167425]]], [[[17787, 20380, 5372], [5161, -13014, 75781], [-40541, 2508, 31581]], [[-9353, 39993, -33666], [-57500, 18630, 87290], [-17834, -17619, 6944]], [[12806, 49261, -4017], [-57067, 46883, 87663], [5679, 43207, 25267]], [[-137462, 143594, 267128], [-219355, 219545, 310399], [-451470, -310011, -83960]]], [[[37521, -46890, -38187], [33691, 17529, -64293], [101104, 14192, 52057]], [[57370, -41943, -67643], [-2182, -18102, -25418], [99313, 57052, 70376]], [[17689, -97310, -121788], [-42445, -19912, -30370], [90653, 95155, 47499]], [[-25310, -107729, -176285], [-86298, -345597, -145634], [275194, -20540, 9920]]], [[[55429, 83427, 23635], [-23325, 53095, -26472], [14734, 40756, 79059]], [[-14124, 34832, 77291], [41394, 42391, 21857], [-6644, 22653, 11791]], [[-1083, 43715, 33153], [74772, -2861, -17371], [88863, 66498, 43287]], [[-152964, 55168, 8350], [-82341, 41659, -17930], [341786, 452199, 285023]]], [[[-64360, 40685, 18055], [-51035, -2160, 14559], [-78007, 71176, -7414]], [[-28666, -44948, -21020], [-23587, 6276, -11965], [-43090, -5307, 1928]], [[-48024, -2924, -30514], [38384, 48512, -11247], [-16069, -11437, -101510]], [[157416, -6569, -141812], [406465, 199666, 21870], [87825, -242065, -359239]]]]], "conv_bias": [[-25098711040, -722199680, 26641963008, -10772447232, 38029049856, 5657426432, 41140965376, -26733479936, -30926086144, 22284093440, 9716809728, 19407986688, 29296930816, 31631812608, -22021916672, 29689415680]], "conv_strides": [[1, 1]], "conv_kernel_shape": [[3, 3]], "conv_group": [[1]], "conv_dilation": [[1, 1]], "conv_pads": [[1, 1, 1, 1]], "conv_input_shape": [[1, 4, 28, 28]], "output_shape": [1, 16, 28, 28]}