{"scaling": 18, "scale_base": 2, "input_shape": [1, 256], "layer_input_shapes": [[1, 256]], "layer_output_shapes": [[1, 7]], "layers": [], "not_rescale_layers": ["fc2"], "fc_weights": [[[146335, 132905, 140432, 108935, 129602, 124291, 127246], [194682, 189059, 186518, 198504, 225186, 154796, 183016], [3918, 443, -13101, -256, 11714, -11202, -8613], [1888, -5633, -14011, -12773, -1494, -5674, 5898], [2439, -13809, -5894, -15820, 2286, 12240, -2231], [8946, -5651, 3727, 1981, 9238, -8224, -13667], [-10877, -1162, 2326, -7406, 1062, -5660, 9378], [84533, 86448, 84125, 87570, 81948, 87466, 84929], [3454, 11779, -9622, -12080, 16503, -11514, -241], [-6657, 14624, 3251, -13261, 8713, -1419, -10407], [82856, 68601, 78237, 69955, 81849, 40537, 73026], [1810, -9641, -4575, 9446, 14073, -954, -3798], [-14291, 5440, 1841, 8830, -7286, -13580, 5633], [3870, -11989, -872, -2523, 7852, -12554, -8964], [97177, 82662, 84501, 100985, 41425, 124949, 97147], [170905, 180650, 158324, 195596, 119089, 240826, 193125], [70963, 64447, 52973, 87395, 66442, 39004, 79722], [830, -3089, -11720, 11904, -1420, -1289, -11248], [123727, 116871, 119708, 115479, 144769, 128467, 122550], [-105225, -107188, -106515, -108026, -83146, -131626, -104153], [-10550, 4615, -7406, 5253, 2801, 1096, 660], [99651, 100899, 106901, 101130, 101033, 109216, 100402], [110379, 115307, 94476, 119715, 123167, 102062, 123432], [-8480, 15101, 6304, 11787, 2358, -9965, -8917], [-5224, -10379, -158, 504, -14964, -11788, 15072], [1186, -5569, -6703, 1120, 11231, 1244, 16175], [214951, 224994, 210657, 207396, 195810, 213330, 223000], [-12331, -5290, -7104, -12807, -10385, 3929, 6940], [-10270, 12209, -11183, 6676, -13612, 10226, 9092], [8190, 7235, -3952, 1489, 7308, -3680, 621], [100044, 93180, 104674, 98310, 77639, 120901, 94064], [169626, 179298, 173168, 169412, 171580, 156191, 170923], [3562, -8919, -761, -13907, 11483, 3375, 9819], [174132, 108272, 162583, 167354, 164596, 153538, 206175], [83203, 88383, 85171, 89825, 74090, 97432, 86239], [1027, 14678, -1179, -10828, 13187, 10505, 5414], [202318, 180774, 189294, 179652, 150631, 193588, 190683], [125483, 135749, 122302, 151350, 78118, 174077, 140499], [-6904, 15865, 2287, -297, 4290, -864, 3564], [9600, -9708, 5841, 11525, 3928, 483, -6002], [14389, -878, 6561, -8542, -11919, 4840, 6319], [6668, -7088, 4948, 1448, 5464, 16734, -2901], [167552, 151316, 181107, 159475, 201771, 107375, 160629], [44152, 34651, 51692, 38272, 21310, 37901, 39619], [10208, 3687, -13516, -9928, 3529, -251, 6642], [-6772, -13130, -12963, -7041, -181, -8704, -15775], [81034, 80493, 76353, 78282, 88085, 64949, 79205], [-7143, 13021, -7048, 14474, -7177, 1502, -14905], [82741, 89712, 70946, 92793, 53006, 114525, 95378], [-13136, -4368, -12249, -12266, 1296, 15736, 2092], [14691, 13361, 1726, -5658, -5832, -12943, -15387], [128, -2479, -64, -14628, -10003, -2022, 4444], [114412, 137545, 120038, 130180, 131583, 120071, 133410], [107142, 127037, 110077, 99220, 96913, 135387, 120120], [8432, -14098, 425, -4542, 1269, -4984, 2149], [106112, 78113, 90219, 97780, 110497, 48357, 99591], [9925, 5703, 5878, 1910, -1831, 7481, -4384], [-14150, -1240, -3867, -3089, 494, 4482, 5926], [6129, -7805, 344, -13861, 181, -4315, -6604], [106793, 145498, 168895, 169841, 132356, 146569, 176161], [151452, 150862, 139918, 156776, 168323, 134257, 148221], [-11821, -386, -7394, 13287, -11558, 13271, 14802], [14500, -8664, -13433, 14086, -2355, -8744, -6376], [11439, 6442, -1945, 12348, 10876, -13677, 188], [-13197, 12386, -6122, 852, 9478, 13380, -6634], [-12783, 9822, -1331, -3817, -3148, 2342, 5902], [5000, 7508, -9080, -5119, 6623, -8203, 4348], [114746, 122134, 106196, 133264, 97791, 149237, 126931], [-2232, 457, -408, 17022, 5119, -3781, -10726], [193570, 193149, 192159, 197733, 208969, 185601, 192298], [113024, 115046, 106968, 113228, 123805, 112605, 112416], [-17206, -5725, -11067, 10087, -494, 10331, 11566], [145894, 144438, 156187, 136128, 153191, 142864, 144725], [12209, -2102, -1394, 7638, -5961, 10016, 4711], [-2155, -9929, -9311, 2311, 13219, 7530, -9068], [64813, 65828, 72066, 59604, 65358, 69231, 75176], [13376, 180, -12584, 12593, 14774, 14573, 12162], [9400, -11147, -8517, -9489, -12752, 15553, -9613], [10471, -7012, 2911, -14162, -8232, -6809, -5556], [14815, -3292, 7278, -9947, 14271, -8522, 5588], [-3486, -3400, 1341, -7038, -13636, -13056, -10179], [8353, -13273, -16288, 2870, 5530, 8818, -10831], [-4700, -14897, 564, -12995, 12231, 10365, 1063], [15852, -7628, 8417, -12652, 655, -4236, -5595], [11907, -7777, 5378, 7508, -1227, 7777, 9397], [-8052, -14258, -5358, 8312, 16260, -4411, 7049], [-101391, -95372, -105040, -92383, -109008, -88600, -97279], [92022, 88691, 95185, 85506, 97576, 81889, 92086], [2536, -11125, 11183, 6414, 7651, -8393, -6305], [153182, 144384, 181578, 103922, 86240, 153942, 134289], [-12173, 4878, 2613, 2539, -9461, 730, 2138], [-10663, 6179, 9274, -6699, -5883, 10872, -13321], [120249, 137912, 180725, 134769, 161379, 116497, 183411], [89906, 103146, 95928, 105219, 79139, 132713, 102921], [-9962, 2688, 875, -4392, -3614, 7669, -6684], [-15249, 3244, 11834, 12086, 1313, -9771, -7601], [-7938, -13874, 2834, 16793, 11180, -1248, 8959], [-13062, -7871, -3978, -14638, 4777, 511, -10500], [1682, -7946, -3384, -8410, -2925, 13466, -11577], [-10565, -13536, -11898, -590, 4123, -12531, -3231], [10789, -11841, 13916, 3751, -12064, 1548, -2241], [-486, -5275, 5796, 2220, 6034, -6726, -10908], [8700, 12196, 15205, -6946, -9880, 6462, 13127], [-9981, -12059, 5022, 12736, 11442, 10170, 6753], [-28, -8346, -7493, 14130, 12493, 220, 7815], [15431, 1018, -11440, -2288, 7407, -7718, 3549], [117081, 119615, 91605, 110295, 145243, 102891, 78545], [12979, 13128, -8138, 14001, 9798, -13852, -5836], [7644, 6567, 4735, 5083, -7894, -135, -14440], [12910, -1865, -12403, -9333, 1625, -12897, -11663], [178924, 163562, 165250, 190886, 213964, 125114, 175981], [11138, -6599, -3119, 14303, -6507, -5475, -12616], [-4648, 1611, 15084, -7288, 12659, 113, -12944], [10052, 10915, 3623, -1552, 8888, 8617, 7684], [52841, 45011, 57056, 44708, 70192, 41198, 49861], [150845, 133787, 133495, 146554, 151950, 126139, 155466], [3944, 10539, -10829, 4909, 10828, 5911, -14906], [4893, -8649, -863, 763, -10279, -10733, -6008], [89304, 84482, 104047, 96003, 94564, 78535, 94890], [-14562, 14761, 3775, -12051, 606, -12911, -8819], [9164, -94, -3939, 10981, -14448, 3233, 7347], [220661, 225267, 195975, 230824, 234637, 229038, 224741], [100278, 97788, 86904, 98763, 104987, 87851, 89440], [109057, 90024, 103251, 116014, 61348, 109014, 103554], [7007, 14867, -7957, -3335, 93, 3092, 12492], [-15650, 14443, -11630, 16188, -4909, 12499, -16444], [-5735, -14446, -14791, 10034, -12139, 15660, 2785], [14657, -7692, 7858, -570, 7841, 2256, -11107], [8996, -16196, -5931, -7258, -5991, 5815, -6924], [-6089, 2290, -7723, -5691, -164, 1147, -7055], [-8374, 13722, 13108, 4110, 8194, 4612, 4244], [-9613, 3606, -8203, 2830, 13195, -15201, -13919], [13334, -7303, 5149, -5735, -18112, -10344, 7450], [6168, 6806, -11497, 47, -11454, 8184, 7154], [93642, 95819, 102302, 81921, 79961, 98430, 98292], [2737, 14022, -1195, 2523, -6491, -8531, -4620], [-3477, 1820, -3530, 3171, 9083, -8859, -14249], [-15003, 13074, 6227, -11215, 478, 5836, 3077], [133798, 206355, 175756, 167860, 123975, 169102, 175609], [184333, 170102, 175563, 181223, 192199, 160369, 182719], [429, 850, -16014, -2719, -13762, 1100, 8826], [112397, 125846, 112102, 123297, 111118, 125004, 128437], [4855, 5949, -13813, 7260, -14008, -7580, -3998], [-8622, -3563, -10830, 9074, -12737, 10950, 1039], [124676, 124106, 157275, 88241, 112096, 90947, 142588], [10472, -14236, 3871, -13196, -3082, 1589, -10761], [-129911, -130826, -123112, -128085, -157572, -118221, -142470], [10644, 1781, -14116, -7962, -3839, -12917, -335], [-5599, 5616, -13585, -8110, 8111, -75, -11526], [9675, -7707, 4982, -6549, 2613, -4778, 4122], [78034, 87050, 68779, 86779, 100316, 82591, 75794], [129568, 128756, 131407, 120210, 123327, 132252, 130006], [123193, 136774, 126199, 120434, 117396, 173792, 108104], [-6865, -14707, 5245, -3476, -12793, -4138, -14309], [8259, -11726, -12576, 6960, 4185, -8098, -14946], [-14260, -1713, -4371, 9564, -13166, -15284, -10852], [97105, 91348, 110142, 87644, 114082, 69981, 93354], [-8356, 3767, -6642, -13020, -5489, 8999, -7664], [89042, 97701, 81204, 100702, 90595, 99864, 87974], [15831, 17776, -2898, -11844, -3875, -9888, -383], [8161, -7361, -6118, 13357, 12613, -5544, 369], [-8829, -7879, -15327, 15055, 6894, 1892, -15104], [1315, 7196, 4833, 13312, -13264, -11242, 3179], [119271, 135765, 131644, 52173, 106020, 115362, 131117], [-102885, 33457, 33692, -43891, -212571, 44231, 106515], [103776, 92850, 101499, 98973, 90828, 122491, 93567], [98819, 101841, 104226, 96528, 57806, 111595, 95676], [-80610, -81316, -92709, -76775, -78614, -84855, -80759], [79779, 79716, 79639, 81508, 74623, 69350, 79528], [113991, 116468, 121021, 114841, 96254, 118167, 120805], [12059, 9548, -14832, 14594, 11638, 7339, 14866], [252705, 255246, 253333, 235153, 241722, 264606, 257602], [-14013, -10199, 8501, 67, -873, 2009, 1598], [-4169, 14225, -4783, 2046, -4682, -7147, -2670], [93413, 91826, 93611, 94616, 77978, 103165, 94578], [-4771, -12799, 784, 4434, -6819, -8038, -9074], [-6128, -13330, -5439, 11760, -10096, 8107, 11067], [63493, 68061, 58515, 75022, 51811, 80378, 69499], [-1972, 10831, 4276, -12682, -6718, -14711, -342], [11386, -2017, -15247, -8378, 229, -7275, 7999], [-3971, -15318, 678, -2873, 8479, -3030, -9185], [76267, 62865, 80010, 66790, 77158, 57204, 78047], [6395, -13399, 13569, -3976, -4531, -8630, -2973], [78759, 64785, 61819, 74408, 102002, 51894, 76255], [5062, -4127, 3395, 7654, -1550, 132, 6948], [-6118, 5536, 1645, -6170, 10094, -2709, -6633], [1250, -8703, -1119, -5332, 2005, -12237, 1207], [130812, 139073, 131482, 109350, 37110, 208023, 134144], [101660, 116400, 122891, 85002, 29288, 109382, 98582], [-10937, 3420, -15121, 12408, 6347, -8539, -17293], [10284, -14762, 4396, 4215, -2023, -4420, 6434], [92151, 75643, 83389, 76443, 74913, 89393, 82309], [92269, 99612, 94897, 97330, 94570, 104660, 102519], [-5314, 7567, 4164, -10989, 7662, 12679, 3182], [-6064, 3770, -4344, 12035, -14911, 7663, 3510], [4562, -13648, -8456, 9088, 7582, 15321, -13624], [10449, 1318, 12247, 11154, -10901, 2575, -10188], [-11981, 16462, -7922, 1237, 1262, 15932, -4530], [14414, -13378, -2404, -7499, -10016, 3913, -10338], [-46124, -47122, -53445, -45972, -56207, -41260, -52120], [69688, 66662, 58638, 73534, 77332, 65174, 61568], [479, -14858, 12643, 13835, -3039, -4015, -7877], [-5941, -6663, -8535, -7178, 1011, 5528, -12970], [101323, 115121, 133184, 119676, 94671, 157680, 115256], [-142468, -152528, -136424, -149283, -154174, -122618, -150865], [38257, 44129, 18170, 50148, 41216, 51246, 40662], [65371, 63305, 63860, 54900, 113694, 42095, 62068], [55239, 89108, 93071, 60750, 76418, 58979, 87433], [13174, -6827, -10398, 11987, 8761, 2627, -6965], [-4907, 5012, -7747, -8623, -7496, -15670, -12683], [-4393, -6208, -7666, -7940, -11124, 2568, 3866], [1428, 10090, 14025, -4781, -6729, 4807, -13277], [-663, 1043, 15877, -10547, 5194, 914, 625], [6794, -5950, -11910, 3643, 11502, 654, 18235], [-8867, 10291, -12857, -2191, 5156, 13620, -1602], [134131, 159532, 158654, 144278, 141652, 139244, 151968], [9186, 3493, 9114, -579, 12131, -5530, 373], [-8884, -2103, -3083, -1719, 16254, 42, -11147], [-7722, 7876, 3043, -3461, 4456, 5412, -1544], [23827, 14176, 9674, 21633, 53267, -8473, 20670], [-7846, 7658, -9138, -11732, 8802, 305, 1743], [108914, 104845, 103077, 115250, 102061, 106751, 113153], [-7528, 5020, -11960, 7886, -635, 11705, -10898], [-2823, 6754, -12787, 6289, 7178, 11734, -11639], [6109, 8853, 10907, -2091, -9149, -8716, -10279], [30797, 37742, 48491, 24585, 41252, 36029, 33662], [943, 2907, -2719, 6358, 6051, -11430, -4093], [2195, -15037, -12009, -5278, 7866, 5906, 593], [5177, -10562, -9842, -3375, -3965, -9237, -14697], [8221, -1902, 902, -3587, -509, -16831, -6332], [9622, -4160, -6077, 5912, -10614, 6797, -6860], [-11234, -228, 15240, 14479, -2322, -11304, -10863], [3654, -2149, 2610, -15628, 9455, -15131, -14034], [1170, -13953, -1179, -10077, 2589, -7738, 3333], [-11758, -6419, -10097, -9815, 2137, 11879, 14171], [139425, 178496, 177363, 192270, 132794, 162319, 158573], [-7463, 3586, 877, -6141, 11094, -925, -13689], [3208, -441, 79, -11960, 11159, 8346, -16155], [10935, 7418, -10264, -11622, 11997, -3677, -5607], [-156026, -152087, -161424, -151142, -147369, -170766, -147632], [-927, 5975, 7862, 6395, 4569, 4410, 13392], [2359, -4658, -10984, 15464, -5934, 11005, -4227], [8038, 2253, 7263, -4963, -1160, 9403, 7957], [-277, 3468, -3478, -2094, -10942, -7132, 13477], [11121, 3062, 15475, -10517, -4825, 11787, -1795], [8743, 2839, -11285, -14856, 1207, -4297, -10861], [69486, 66614, 68025, 65483, 70559, 60042, 67342], [13958, -13294, 12824, -15503, -2012, 7805, -11446], [-9374, 12896, -15134, 9906, -12856, -10999, -8266], [6146, -4697, 3423, -3268, -10072, 14286, -679], [-13019, 1526, 8674, -5624, -11146, -9705, 1720], [-12812, -5658, -10116, -14684, 11353, -15650, -1804], [143626, 152989, 149477, 156449, 126035, 165310, 149132], [5989, 3904, -435, 1424, -3220, -2741, 4888], [159597, 162022, 142928, 169813, 150597, 181921, 167675], [111830, 104024, 87613, 94327, 84844, 90076, 95926]]], "fc_bias": [[[18862270464, 19416821760, 31949402112, 17774546944, 26793902080, 14175964160, 18577979392]]], "output_shape": [1, 7]}