{"scaling": 21, "scale_base": 2, "input_shape": [1, 3, 32, 32], "layer_input_shapes": [[1, 3, 32, 32], [1, 6, 28, 28]], "layer_output_shapes": [[1, 6, 28, 28], [1, 6, 14, 14]], "layers": [], "not_rescale_layers": [], "conv_weights": [[[[[-255461, -504679, -270455, -97376, -48458], [-464959, -351608, 200256, -2473, -788379], [-439173, -187059, 300720, -52211, -648900], [609402, 64970, -168144, -5327, -373352], [288969, 383361, -254270, -406819, 190503]], [[442291, 229864, 347632, 144962, 273316], [-37198, 456906, 689307, 503527, -170177], [238237, 534248, 545830, 531096, -341297], [950218, 545953, 217544, 159657, -151785], [501616, 889350, 332066, -149212, 273982]], [[-129509, -207130, -79149, -339155, -127253], [-256325, -318092, 399596, 180959, -717579], [-167671, -241462, 249128, 83520, -791115], [530559, 159417, -441390, -27992, -453922], [-36537, 188262, -402028, -536130, -224470]]], [[[-121532, -242605, -203579, -224766, -185792], [15158, 250794, 198165, -28225, -18416], [-250358, 157691, 395051, 223760, 15522], [-112924, 112514, 324736, 257633, 218670], [-128788, 210634, 259673, 461933, 68975]], [[-363353, -52209, -159162, -217650, -409414], [-378151, -39123, -153407, -62185, -157791], [-290776, -102966, 108322, -7930, -158946], [-231915, -354921, -119934, 154161, -1018], [-354788, -193478, -138776, -177261, 63867]], [[256474, 135375, 173493, 129954, 268187], [121515, 96775, 357855, 511626, 249079], [-299993, 36040, 273697, 737165, 581351], [-174387, 139723, 446598, 488445, 170141], [-128484, 134433, 278536, 276209, 293474]]], [[[673763, 290327, -10105, -376874, -243619], [209942, -28257, -549271, -456200, -304850], [-242216, -427777, -401669, -323548, 162860], [-91124, -109654, 61264, 121792, 191531], [50965, 264265, 111963, 258412, 459713]], [[50835, -117666, -305338, -550033, -290290], [2381, -357982, -581129, -303944, -166503], [-246141, -495701, -435092, -240128, 471841], [-82427, -175865, 1612, 527718, 516883], [499333, 241059, 406446, 443468, 378175]], [[281597, 338877, -110541, -78550, -62552], [427568, 69473, -344836, -429539, -95427], [-70315, -396384, -509211, -156704, 125411], [-330341, 90590, 19101, 500550, 237903], [344391, 363361, 359178, 213951, 52254]]], [[[-42248, 110971, -68291, 305709, 503566], [574514, 669437, 1042473, 858221, 862028], [555742, 996098, 817005, 437810, 257561], [-350123, -631240, -878732, -1099601, -547978], [-522448, -714734, -1020982, -633297, -892902]], [[-111399, -404048, -481473, -751998, -137308], [38692, -9927, 491675, 506651, 88330], [435842, 749093, 572413, 564092, 5165], [-506481, -659317, -642260, -486643, -190673], [-150002, -338895, -193883, -348327, -226750]], [[-74530, -654304, -353342, -777498, -494279], [-81497, -133004, 157094, 120447, 145713], [551403, 357183, 848557, 592271, 335163], [234922, 118281, -268257, 32278, 287918], [475657, 300015, 346334, 237856, 205355]]], [[[-581576, -369824, -549530, -341312, -553997], [-287062, -585994, -398712, -686978, -391599], [-111493, -134745, -166374, -374607, -674946], [-301915, -108940, -16385, -375040, -127851], [-22964, -37271, -399091, -290508, -510454]], [[125856, -70351, 106962, -254325, -98621], [-28405, 118488, 295853, 96635, -54783], [172577, 398937, 430567, 292145, -78371], [-229575, -76447, 489597, 254539, 206746], [-215532, 75205, -285464, 56524, -121280]], [[456751, 200189, 476276, 444056, 534528], [585908, 708403, 470297, 382882, 203806], [738586, 519311, 547525, 375292, 459081], [158684, 79749, 413593, 710039, 497419], [-257522, -152511, 177875, -64846, -357195]]], [[[308708, 87189, 493704, 707240, 462303], [438370, -172701, -358166, 699951, 842686], [378664, 23220, -818126, -88885, 1071621], [310664, 466495, -855507, -504444, 277056], [64095, 217035, -113375, -671689, -243712]], [[-643974, -407169, -836097, -300869, -277451], [245811, -748262, -750700, -93230, 78042], [278224, -260402, -1080913, -602797, 665059], [623527, 520914, -736459, -999154, 236805], [236097, 787482, -190265, -692991, -27495]], [[-58229, -206163, -228071, 204942, -110972], [295426, -131353, -523133, -176461, 371808], [797437, 272108, -1133152, -173836, 357151], [544529, 543663, -849545, -930339, 246461], [746796, 1070789, 235839, -681314, -88762]]]]], "conv_bias": [[227013541888, -401139761152, -1126709329920, -1334514810880, 988820013056, -1139837370368]], "conv_strides": [[1, 1]], "conv_kernel_shape": [[5, 5]], "conv_group": [[1]], "conv_dilation": [[1, 1]], "conv_pads": [[0, 0, 0, 0]], "conv_input_shape": [[1, 3, 32, 32]], "output_shape": [1, 6, 14, 14], "maxpool_kernel_size": [[2]], "maxpool_stride": [[2]], "maxpool_dilation": [[1]], "maxpool_padding": [[0]], "maxpool_ceil_mode": [false], "maxpool_input_shape": [[1, 6, 28, 28]]}