{"scaling": 21, "scale_base": 2, "input_shape": [1, 84], "layer_input_shapes": [[1, 84]], "layer_output_shapes": [[1, 10]], "layers": [], "not_rescale_layers": ["fc3"], "fc_weights": [[[78218, -2654, 155127, -164492, -110496, 224097, -179359, -92368, 145506, 32316], [51501, -208303, 347053, -134528, 78704, -269149, 720728, -297889, -121032, -307371], [253708, 81867, -428504, -7993, 293397, 2526, -109167, 28514, -319388, 375071], [322992, 410765, 91249, -258792, -116926, -504138, -293828, -10323, 654581, -215667], [575481, 525807, -50553, -300550, -74912, -267496, -363639, -216863, -182619, 119432], [-626705, -345291, 17089, 605068, 148895, 519822, 161592, 6041, -131900, -433504], [45990, 174447, -165181, 61893, -85722, -320769, -201652, 3861, 159137, 37364], [-156757, -10012, -327923, 62943, -84588, 338721, -414191, 254753, -225571, 90023], [197957, -251058, 181489, 136231, 120891, 131568, 4695, -251960, -22970, -115661], [-4520, -801607, 437186, 242349, -348563, 121141, -113882, 81793, -271960, -160892], [-142385, 100206, 202830, -268255, -53204, 300001, 140080, 176128, -245996, 101079], [402740, -74294, 215731, 98652, -97535, -366911, 47111, -234461, 280371, -42941], [-655160, -120683, 189857, -63911, 440159, -71675, 725971, -124024, -632092, -313322], [403613, -266989, 316693, -150095, 63468, 32796, -387480, 119473, -246331, -102213], [-47556, -174887, -346681, 331704, -75716, 196680, 166247, 476334, -340802, -214503], [133544, 103019, 69388, -22107, -77804, 178417, -30163, -68757, 111329, 233501], [205725, -204821, 512516, -257613, 269793, 111561, -60119, -128664, 268008, -104743], [120257, -84762, 159890, 73995, 528941, -332450, -350007, -283762, 322840, -348328], [128812, -69859, 279341, 263104, 207527, -71869, 340662, 18564, -765301, -259594], [428601, 24333, -107497, -360199, -195393, -528247, -127072, -439537, 748310, -53100], [323842, 386739, -87043, 4411, 8770, -235260, -77595, -297370, 89307, 246687], [507665, 258572, 139802, -67643, 146540, -434426, -235583, -131481, -57346, -215883], [-178698, -177527, 14306, -65322, 361946, 226623, -171874, 387212, -5812, -398869], [74542, -524709, 18995, 271150, 304812, 310731, -365356, 219693, -226355, -514239], [301463, -154596, 28943, 21073, 20079, -349720, -407705, -124531, 248981, 249788], [107355, -596223, 388168, 371594, 408345, 528228, 261938, -429, -7417, -657649], [286993, -19184, 107230, -264612, -374646, -220595, -16037, -219947, -168929, 166510], [182343, -26039, -90658, 42022, 427116, 161569, 372006, -15017, 28767, -189582], [92244, -209999, -175719, 121662, 139300, -90738, -109633, -43568, 115076, -38705], [331124, -337335, 119939, 179871, -508507, 254174, 186724, 166545, -54749, 283578], [-389938, 438895, -41764, -127105, 156360, 251862, 435262, 354934, -372801, -168019], [-21216, 322819, -40068, 157249, -109392, 60416, -301888, -143022, 232704, -283902], [18074, 2761, 106880, 65410, -105056, -327384, -157242, -5468, 18413, 34205], [-7051, -66240, -62048, -213038, 215780, -13732, 79061, 318957, -38336, -24222], [-31885, -116872, -31878, 105729, 46751, 144750, -189533, -43886, 229240, 32209], [-306710, -190813, 231994, -81570, 373949, 438311, -71730, 129424, -399747, -109772], [336117, -295138, -142752, -325227, -250307, -340924, -576690, 71678, 501269, 266403], [-106262, -84563, 273017, -160176, 217556, -308853, 32050, 240266, 43249, -335688], [-43616, 623418, -8350, -117513, -331441, -319452, -259274, -323987, 281579, 368632], [175854, -34912, -30869, -184043, -211826, -9627, 170447, -168976, 58832, 167726], [-208528, -59146, -139725, -178034, 65572, -146419, -148582, 109345, -119055, 43709], [-44925, 39534, 118664, -6376, -449953, 207735, 543518, -249109, -462366, 487907], [-194987, 330621, -392786, -39989, -232601, -220151, 150886, -321797, 383812, 349300], [92236, -60809, -594376, 483331, -247961, 403212, -299790, 129907, 315397, 21971], [-371742, -151874, 54649, 633462, -215733, 349179, 425300, 87400, -544477, -293830], [-34180, -384030, 481090, -123118, 703747, 23955, -356701, 336768, -159026, -558336], [-693843, -716910, 303636, 504635, 381183, 393362, 286887, 45126, -662892, -553836], [376648, -306668, -155148, -118178, -116554, 195848, -177710, -175804, 107650, -120345], [226483, 294647, -139522, 39531, 42405, -143931, -142683, -51865, 271895, 73954], [173599, 294897, -208473, -22889, -229300, -169024, -168659, 187001, 133620, 230996], [222747, -13239, -145599, -160155, -128116, -162834, -180299, 575278, -60862, -7268], [358391, -352240, 135407, -92518, 27877, -276652, 204110, -318363, 15601, -330055], [-459071, 405024, 111005, 184798, -461831, 177292, -307980, -190750, -69090, 509741], [257170, 138658, -25317, 535, -72408, -47584, 62003, -17007, 10740, -116307], [286273, 16914, 41315, 128960, -294266, -308913, -100022, -79119, -157985, 44104], [318026, -161898, 569584, -133007, 107647, 116586, 52964, -119451, -307493, -163071], [162227, 212340, -322533, -332820, -345657, -358780, -62020, 97764, 389056, 206553], [-154849, -228617, -102794, 79366, -68076, -250828, -419749, 336050, 288178, 689842], [-50337, -157062, 129319, -1905, -237773, 236876, -194956, 151479, 57610, 13872], [93657, 49840, 140475, 43246, 20924, -6228, -184979, -42580, -49642, -36129], [137006, 528696, -224119, -7519, -536335, 257701, -491466, 270903, -128705, 471988], [604952, -364264, -80797, -118172, 293856, -39240, 1491, -172930, 19897, -204085], [9500, -362109, -489090, 268196, 204717, 66152, -5353, 204121, -467820, 154755], [-193982, -56926, 167184, -225798, 43007, 35531, -67604, 376239, -65383, 81443], [-332081, -83371, 541428, 75640, 60786, -117871, 891901, -302439, -697122, -76105], [-77903, 16286, 461500, -317749, -308787, -146292, -5546, -73568, -164880, -160022], [-176052, -170744, -121566, -109784, -178575, -203044, -40763, 71472, -48401, -168627], [-65500, 536219, -386265, 200289, -696415, -118969, 650779, -593379, 235224, 442499], [403674, -188334, 73467, -78976, -348335, -949, -349668, 293822, 7304, -350839], [-162209, 120922, -92169, -114717, -202911, -114265, 39283, 471666, -28174, 306000], [414467, 220736, -440919, -521879, 153852, -500189, -512571, -396239, 441113, 304284], [121608, 526442, -285462, -416947, -234721, -147111, 78518, 71982, 513401, -92782], [236829, -170236, 305019, -137330, 36490, -194101, 57968, -603075, 553237, -174541], [-174976, 55806, 160947, 24335, 109963, -194393, 66615, 171248, 55474, -59760], [6697, 134149, 11360, 166814, -104193, 101860, -126373, -99289, -186243, -184813], [-53052, 91936, 483447, -128170, -392446, 36102, -187553, 172552, -399255, -193189], [36255, -417911, 337246, 443720, -255919, 386118, -383291, -47146, 524036, -524474], [-100578, 14206, 138162, -211815, 57722, 174407, -147469, -178420, 65935, 50737], [-300971, -85441, 153096, 180009, 246998, 48324, -311823, 873645, -847800, 293243], [-237775, -443407, -133407, 153084, 146067, 333592, 81807, 476068, -756384, -139481], [290486, 1246702, 71257, -446435, -404486, -247643, -381151, -322022, -13385, 757107], [-61628, -143178, -35061, -51905, -145231, -211056, -113838, 12175, 137100, 120878], [-8650, -217989, -126648, 881, 176186, 328604, 128380, 160131, -246624, -183168], [-111397, -198947, -181369, -295503, 350554, -338029, 284163, 585665, -559568, -350298]]], "fc_bias": [[[-1088640778240, -2712148115456, 534869868544, 1373111451648, 2335880511488, -456999698432, 249681461248, -953533399040, 1191682113536, -1036204310528]]], "output_shape": [1, 10]}